2576 50
</s> 0.008005 0.008839 -0.007661 -0.006556 0.002733 0.006042 0.001882 0.000423 -0.007207 0.004437 -0.008713 0.002499 -0.001503 -0.001914 -0.006631 -0.003764 0.005159 0.006051 0.005938 0.003195 0.003090 -0.007605 -0.008192 0.009939 0.007603 0.006180 -0.001208 0.008031 -0.000990 0.001469 -0.000298 -0.005966 0.002625 -0.002675 -0.007651 0.009508 0.008759 -0.002190 -0.000452 0.001018 -0.007275 -0.008014 0.009109 0.000126 -0.005165 -0.006084 -0.006153 0.003394 0.000403 0.002662 
很 -0.124859 0.060402 0.025516 0.000543 -0.022736 0.147857 -0.009176 -0.063108 0.117926 -0.020832 0.221645 0.169476 -0.092788 0.069951 0.085662 0.203474 0.142445 -0.133769 0.042963 -0.047274 0.097748 0.009562 -0.107787 -0.138917 -0.046019 0.156196 0.005512 0.112703 0.072537 0.080657 0.027237 0.159018 0.142981 0.108672 0.013428 0.090112 -0.043723 -0.073916 0.047339 0.158321 -0.173573 0.241766 -0.129496 0.089192 -0.003239 0.071597 0.192530 -0.152904 0.234194 -0.340375 
好 -0.041906 0.091247 0.022316 0.025742 -0.047903 0.016159 0.073126 -0.087809 0.076418 -0.031389 0.107951 0.146589 -0.053113 0.071421 0.068748 0.197385 0.140977 -0.097030 0.048068 0.075966 -0.005776 0.045734 0.066405 -0.072296 0.019119 0.095944 -0.085788 0.072518 -0.003171 0.068156 -0.064456 0.070572 0.034190 0.065604 0.096897 0.155247 -0.044070 -0.137907 0.036464 0.115219 -0.098480 0.238636 -0.060797 0.151557 -0.020404 0.056490 0.173587 -0.151540 0.264672 -0.315050 
衣服 -0.069058 0.127755 -0.019627 -0.018722 -0.033141 0.084753 0.070826 -0.043174 -0.049858 -0.023447 0.134206 0.216333 -0.032061 0.122044 0.048952 0.226854 0.139278 -0.152988 0.022679 -0.025155 0.032157 0.024799 0.031945 -0.084689 -0.004987 0.064509 -0.085789 0.184489 0.027443 0.038003 -0.031977 0.036877 0.016508 0.024632 -0.019971 0.122812 -0.029458 -0.209866 0.171092 0.107365 -0.171356 0.117778 -0.066570 0.031854 0.060024 0.086320 0.191497 -0.087176 0.211460 -0.352597 
穿 -0.200959 0.157661 0.159176 0.090308 -0.091325 0.086988 0.037683 -0.029611 0.161849 -0.062110 0.263355 0.138524 -0.114618 0.055282 -0.090609 0.151259 0.213850 -0.129375 0.128676 -0.055977 -0.013765 0.166110 -0.026133 0.029461 -0.062512 0.159050 -0.002537 0.136628 0.051686 -0.006293 -0.009193 0.091823 0.099934 0.162931 -0.059036 0.164527 -0.010805 -0.041370 0.124574 0.166097 -0.075402 0.046362 -0.097832 -0.135402 -0.003957 -0.005370 0.293358 -0.033872 0.128779 -0.428449 
不错 -0.058856 0.107695 -0.000173 0.011674 -0.059757 0.099798 0.024068 0.019161 0.012882 0.001805 0.124440 0.135627 -0.074132 0.160910 0.054035 0.182227 0.151722 -0.145089 0.043563 -0.007760 -0.029833 0.030393 0.015002 -0.096245 -0.009182 0.062251 -0.118546 0.122243 0.055092 0.054565 -0.060106 0.142268 0.149605 0.037900 0.021969 0.107905 -0.106005 -0.050797 0.090596 0.172068 -0.100265 0.201448 -0.006660 0.068911 0.004451 -0.009090 0.226289 -0.090268 0.196276 -0.365922 
质量 0.001069 0.158829 -0.019789 -0.040074 0.003873 0.013116 -0.015102 -0.131342 0.060984 0.035376 0.121307 0.130102 -0.051582 0.101800 0.078847 0.249245 -0.003966 -0.053722 0.085319 0.105597 -0.067629 0.026487 0.051179 -0.029045 -0.021625 0.054549 -0.156824 0.154286 -0.013065 0.094701 -0.077331 0.038564 0.045425 0.052423 0.010093 0.146402 -0.069673 -0.134163 0.055211 0.081488 -0.135183 0.184921 -0.000477 0.120544 0.048041 0.076416 0.219527 -0.239817 0.208211 -0.272966 
喜欢 -0.039908 0.077407 0.096605 -0.142630 0.008940 0.124965 0.086118 -0.055567 0.077777 0.058291 0.125636 0.160747 -0.056535 0.057599 0.038166 0.136667 0.213772 0.093603 0.016054 0.013870 0.031011 0.089857 -0.175437 -0.112409 -0.009755 0.047925 -0.190175 0.168800 0.052037 0.087809 -0.092530 0.385602 0.124322 0.092387 -0.115362 0.095145 -0.017998 -0.037889 0.176874 0.176410 -0.143814 0.179581 -0.090325 0.141723 0.112278 0.151054 0.342532 -0.254569 0.220778 -0.375654 
不 -0.261296 0.122020 0.136946 0.037693 -0.036424 -0.086773 -0.032615 -0.173347 -0.127910 -0.145776 0.172133 0.181017 -0.141840 0.001958 0.062263 0.367261 0.009262 -0.228032 0.230542 -0.053389 0.083999 0.113605 0.194347 -0.165968 -0.181561 0.171150 -0.083742 0.190323 0.097602 0.015504 0.012950 -0.101408 0.020622 -0.063613 -0.072922 -0.071860 -0.006068 -0.287477 0.102118 0.151673 -0.022098 0.051689 0.039104 -0.023665 0.000751 0.080943 0.348742 -0.069299 0.086556 -0.327436 
买 0.022191 0.241223 0.149976 -0.104434 -0.109383 -0.189140 0.011114 -0.136955 0.020394 -0.178552 0.122774 -0.043305 -0.140670 -0.087505 -0.054510 0.132082 0.096893 0.052202 0.111684 0.039138 -0.254814 0.077960 0.192446 -0.045754 -0.156305 0.189800 -0.331318 0.335528 -0.053501 0.023825 -0.130870 0.054120 -0.255395 0.226456 0.025947 0.203941 -0.005820 -0.140861 0.155365 0.086312 -0.030970 0.176219 -0.049105 0.142654 -0.114934 0.171095 0.292026 -0.197119 0.064834 -0.242046 
挺 -0.144056 0.153398 0.003629 0.101725 -0.045371 0.015481 -0.003788 -0.028948 -0.040135 -0.020407 0.067013 0.207559 0.007676 0.266025 0.010634 0.176684 0.119274 -0.124184 0.033760 -0.070079 0.067452 0.037596 0.079468 -0.146912 -0.053470 0.048015 0.005707 0.089208 0.054157 -0.020334 -0.115278 0.157227 0.135038 0.004949 -0.024731 0.163963 -0.028853 -0.066356 0.209861 0.197612 -0.031241 0.041635 -0.076040 -0.023445 -0.032726 0.089463 0.198331 -0.093233 0.112065 -0.451926 
舒服 -0.133349 0.077564 -0.077994 0.024566 -0.125416 0.139459 0.041523 0.061137 0.073924 -0.042694 0.157860 0.173288 -0.141104 0.138040 0.116975 0.128015 0.134520 -0.266329 0.099043 -0.025695 0.077085 0.030465 -0.135042 -0.154748 0.031638 0.165287 0.025445 0.152307 0.106077 0.057164 -0.098306 0.170985 0.203998 0.112691 -0.098365 0.092503 -0.007072 -0.053669 0.145373 0.289588 -0.186192 -0.011048 -0.118309 0.040457 -0.056231 -0.041815 0.211260 -0.153589 0.271023 -0.308496 
有 -0.302762 0.050337 0.118506 0.073514 -0.255317 0.090312 0.071454 -0.003350 -0.108603 -0.184187 0.160862 0.164251 -0.131237 0.062369 0.074856 0.321211 0.113594 -0.013405 0.077842 -0.011193 0.064701 0.018261 0.273765 -0.054775 -0.168942 0.093919 -0.169004 0.259601 0.019695 0.024433 0.116283 0.010380 0.086270 -0.136314 0.093875 -0.087528 -0.012276 -0.139762 0.148266 0.037145 -0.005955 0.155687 -0.170362 -0.134203 0.057885 0.075119 0.205915 0.091542 0.173439 -0.522483 
好看 -0.010921 0.101335 0.238765 -0.080263 -0.139242 0.177343 0.020087 -0.106396 0.181352 -0.134954 0.240100 0.123019 -0.075423 0.091314 0.107895 0.187356 0.293037 -0.145345 -0.064560 -0.112694 0.073245 0.010201 -0.083563 -0.174850 -0.058137 0.111098 -0.001343 0.333893 0.180021 0.112156 0.072870 0.229695 0.008304 0.023048 -0.178724 0.059043 0.011377 -0.027917 0.199771 0.195045 -0.047120 0.109456 -0.019642 -0.006185 0.075361 0.119572 0.242916 -0.172957 0.168048 -0.326229 
收到 0.123005 0.268080 -0.211821 -0.091438 0.168014 0.022133 0.013759 -0.099969 0.030245 0.058716 0.078231 0.220432 0.022578 0.196394 0.285282 0.043740 0.190554 0.006722 -0.005572 -0.026254 0.011235 -0.039356 0.113147 -0.074732 0.072344 0.127036 -0.318083 0.009672 0.194295 -0.025658 -0.085055 0.059429 -0.016587 0.082210 -0.008924 0.155311 -0.120199 -0.064419 0.198610 0.098202 -0.307367 -0.070900 -0.206417 0.140873 -0.110683 0.014052 0.157964 -0.082074 0.239555 -0.387870 
面料 -0.231414 0.083820 0.011099 0.071570 0.056571 0.038391 -0.022042 0.018658 -0.071833 -0.077992 0.289408 0.121628 -0.097134 0.073243 0.181801 0.225032 0.062998 -0.278407 0.087385 -0.071839 0.023660 -0.021868 -0.088804 -0.119112 0.086255 0.135369 -0.019293 0.151518 0.114592 -0.021294 -0.126552 0.083949 0.279510 0.089563 0.017333 0.086474 -0.121534 -0.211655 0.076556 0.403989 -0.103643 0.030429 -0.050705 0.071950 -0.049393 -0.108596 0.138711 -0.206187 0.265997 -0.274008 
满意 -0.037687 0.081841 -0.114826 -0.039658 0.012311 0.084175 0.029687 0.001819 0.067591 -0.046592 0.091646 0.083993 0.100788 0.135918 0.093027 0.145026 0.052725 -0.176304 0.045785 0.111226 -0.126073 -0.072800 0.116313 -0.114878 -0.030604 0.068674 -0.250575 0.006060 0.100140 0.132119 -0.117403 0.013956 0.065477 0.130611 0.014287 0.162055 -0.141262 -0.105257 0.101698 0.112497 -0.361182 0.395634 -0.196357 0.136987 0.028628 0.074639 0.079074 -0.094803 0.238479 -0.223222 
上 0.033933 -0.042287 -0.032690 -0.017463 0.002028 0.196334 0.114389 -0.233038 0.192681 -0.191524 0.174633 0.211615 -0.092899 -0.004234 0.046670 0.168801 0.095956 -0.165226 0.033470 -0.025337 0.023767 0.103516 0.022076 -0.086200 -0.074295 0.045350 -0.169191 0.183839 0.100689 0.064777 0.113235 0.105829 0.123203 0.007558 -0.159313 0.022780 -0.080309 -0.122348 0.204557 0.095790 -0.109995 0.037420 0.080563 -0.119058 0.049903 0.052933 0.322718 0.106058 0.147188 -0.416386 
非常 -0.013435 0.059951 -0.013483 -0.125313 -0.104285 0.098994 0.074083 -0.040115 0.160242 0.013902 0.327137 0.106459 -0.038337 -0.004019 0.202646 0.169684 0.036073 0.063418 -0.003657 0.025294 -0.028866 0.032814 -0.075935 -0.019670 -0.086572 -0.001597 -0.032357 -0.000218 0.116808 0.125232 -0.016375 0.215675 0.128435 0.122135 0.020368 0.171840 -0.089140 -0.249002 0.069320 0.269580 -0.394956 0.250626 -0.116851 0.231122 0.184399 0.033139 0.058444 -0.234222 0.330066 -0.254891 
快 0.012868 0.105692 -0.198217 -0.095660 0.012299 0.133081 0.133667 0.035738 0.147741 0.099178 -0.032227 0.242483 0.021884 0.138795 0.122492 0.359408 0.282348 0.050463 0.084175 0.151433 0.174175 -0.069068 -0.005456 -0.064328 -0.031814 -0.020533 -0.222381 -0.202472 0.081098 0.175959 0.089432 0.297667 0.192541 0.206272 0.034539 0.243282 -0.080052 -0.148968 0.070188 0.043218 -0.215714 0.254186 -0.346996 0.203836 0.100687 0.014776 0.108585 -0.063741 0.158002 -0.312861 
件 0.125029 0.299001 0.153195 -0.063247 -0.143466 -0.047364 0.003244 -0.033417 0.245650 -0.026384 0.059110 -0.295663 -0.278346 -0.136238 -0.241312 0.072724 0.182475 0.130016 0.191699 -0.018784 -0.281168 -0.088756 0.192528 -0.132389 -0.142675 0.233706 -0.249890 0.269954 0.055671 0.206748 0.049870 0.110967 -0.200263 0.162964 0.114637 0.311619 -0.014984 -0.175754 0.257772 0.118322 -0.222789 0.112821 0.033482 0.153824 -0.191710 0.353428 0.280970 -0.200065 0.131065 -0.411411 
点 -0.315790 0.072261 0.127330 0.047153 -0.341110 0.069152 0.071144 0.044949 -0.170999 -0.185904 0.033280 0.222026 0.031156 0.136147 -0.014138 0.383620 0.182246 0.007509 0.012153 -0.007331 0.017743 0.200773 0.350457 -0.171254 -0.151231 -0.028999 -0.176860 0.157351 -0.056761 -0.041784 0.068713 0.106374 -0.065130 -0.141582 0.263500 0.065443 -0.070176 -0.152834 0.229826 0.151293 0.186278 0.020782 -0.127862 -0.226069 0.077159 -0.006188 0.291104 0.257611 0.130673 -0.427579 
好评 0.170302 0.039295 -0.056947 0.206991 0.127157 0.052926 -0.026146 -0.009339 0.043108 0.102103 -0.017208 0.067245 0.163479 0.037061 0.014884 0.160098 0.055853 -0.141139 0.122241 0.242831 -0.040152 -0.065610 0.125049 -0.033237 -0.082170 0.071065 -0.181935 -0.080517 0.297010 0.041732 -0.082084 0.035307 0.172661 0.056694 -0.106681 0.329573 -0.053833 -0.075050 0.278000 0.176220 -0.141807 0.306999 -0.153485 -0.088702 0.167764 0.204679 0.011576 0.019485 0.473384 -0.333329 
合适 -0.120595 0.198765 -0.102080 0.047621 -0.107971 0.036458 0.117845 -0.143151 -0.031940 -0.107518 0.063692 0.107204 -0.033484 -0.023538 0.077744 0.031323 0.041229 -0.077160 -0.109960 -0.047155 -0.233557 0.220647 -0.073631 0.016414 -0.026125 0.046332 -0.150568 0.062728 0.008242 -0.025317 0.022750 0.046784 0.214278 0.174436 0.140319 0.246248 -0.106901 0.030864 0.093557 0.315261 -0.052157 0.273361 -0.181858 -0.003226 -0.047768 -0.057468 0.134162 -0.087532 0.045778 -0.290516 
物流 -0.074331 0.170119 -0.284181 -0.110088 -0.133369 -0.053302 0.150025 0.071910 0.159576 0.139262 -0.000335 0.197534 0.048390 0.192177 0.047072 0.434328 0.190326 -0.002628 -0.022012 0.151772 0.087328 -0.234765 -0.024697 -0.116211 -0.119844 -0.085870 -0.296446 -0.283996 0.112172 0.161204 0.036787 0.249265 0.171494 0.219679 0.091219 0.352085 -0.066656 -0.169627 0.115604 0.066858 -0.265205 0.245961 -0.300509 0.074505 0.124570 0.110676 0.115882 0.017504 0.336324 -0.210542 
宝贝 0.153180 0.110067 -0.147886 -0.085164 0.218536 -0.021500 0.063515 -0.130360 0.128109 0.129930 0.068169 0.164819 -0.017687 0.123964 0.304118 0.089283 0.189681 0.070589 0.006209 0.024471 -0.033964 -0.056392 -0.081222 -0.120333 0.073604 -0.037080 -0.246009 0.028852 0.135440 0.034035 -0.111800 0.168566 0.102434 0.075950 -0.050052 0.188223 -0.089325 -0.087934 0.148691 0.166160 -0.226417 0.082364 -0.208374 0.200723 0.084215 -0.032119 0.211307 -0.176664 0.339089 -0.296436 
颜色 0.051541 -0.035416 0.025228 -0.065090 -0.229743 0.048441 -0.151555 -0.223782 0.064992 -0.301274 0.216392 0.074055 -0.088878 0.035302 0.059125 0.225155 0.095614 -0.170567 -0.216684 -0.038867 0.026855 0.011677 0.083191 -0.388844 0.044448 0.055282 -0.175450 -0.002092 -0.023518 0.143157 -0.113635 0.163045 0.122667 -0.270285 -0.039991 0.050376 -0.191123 0.070209 0.248991 0.287852 0.101234 0.211434 0.179132 -0.218350 -0.093137 0.258365 0.112446 -0.118947 0.090268 -0.553804 
次 -0.104156 0.414507 -0.005791 0.021740 0.112137 -0.031393 0.096140 0.037222 0.196868 -0.127551 -0.039550 -0.207291 -0.039328 -0.106682 0.125639 0.136278 0.216322 -0.337109 0.309028 0.261269 -0.283776 0.068562 0.228057 -0.079455 0.003541 0.058170 -0.285680 0.027643 -0.092482 0.143233 -0.258642 -0.047051 0.007643 0.107070 -0.114826 0.095685 -0.028991 -0.163878 0.136988 -0.078559 -0.649692 0.636668 -0.107950 0.054954 0.041277 0.111503 0.244304 -0.140058 0.214827 -0.039831 
漂亮 0.061418 0.005825 0.091421 -0.087168 0.004993 0.122427 0.032871 -0.125050 0.170300 0.024530 0.155939 0.136916 -0.029880 0.131067 0.076208 0.084619 0.105598 -0.032105 -0.058847 -0.150962 0.110093 -0.022653 -0.285448 -0.215300 0.069958 0.000958 -0.089885 0.179262 0.151814 0.121303 0.050484 0.262807 0.097845 0.133813 -0.046096 0.125641 -0.024145 -0.152997 0.053184 0.215914 -0.167585 0.093886 -0.019447 0.091303 0.011818 0.165401 0.151282 -0.232803 0.393780 -0.378262 
透 -0.151347 0.108078 0.203805 0.057317 -0.279079 0.066649 -0.198652 0.002634 -0.077029 0.004548 0.284538 0.202686 -0.115960 0.137997 0.052900 0.250590 0.064064 -0.182595 0.170517 -0.159201 0.151482 0.058625 0.167293 -0.191585 -0.077167 0.266272 0.057612 0.097747 -0.071606 0.008230 0.026137 0.069851 0.185651 -0.074090 0.111199 0.104896 0.065554 -0.151270 0.021063 0.261522 0.057633 0.066740 -0.055745 0.110940 0.021747 0.057768 0.339134 -0.112957 0.037793 -0.493828 
购买 -0.118822 0.221506 0.075693 -0.123991 0.183949 -0.026091 0.042145 -0.029106 -0.007398 -0.040417 -0.079903 -0.126954 -0.172246 -0.049190 0.003087 0.180894 -0.025340 0.151315 0.078397 0.122747 -0.282973 0.131360 -0.153865 -0.113484 0.140651 0.050854 -0.392000 0.145695 -0.019692 0.173052 0.033514 0.167918 0.150873 0.200610 0.000873 0.284429 -0.100844 -0.162389 -0.054672 0.296944 -0.237403 0.418055 -0.073485 0.264590 -0.164048 -0.047957 0.224681 -0.231144 0.106136 -0.151687 
没有 -0.018103 -0.110830 -0.086755 0.017071 -0.159606 -0.064851 0.057539 -0.201060 -0.039679 -0.008462 0.093437 0.308743 -0.293284 0.109115 0.417597 0.206579 0.066877 -0.272784 -0.071516 0.071934 -0.047190 -0.158123 0.261257 -0.176611 -0.107153 0.031057 -0.027404 0.076085 0.142071 0.050483 0.055732 -0.159372 0.109897 -0.242156 -0.018593 0.005973 -0.138662 -0.249627 -0.149392 0.315179 -0.145462 0.145803 -0.046490 -0.127465 0.008895 0.116661 0.409042 -0.108431 -0.066302 -0.456660 
效果 -0.213158 0.076291 0.084533 -0.126020 -0.028092 0.101345 -0.078686 -0.082980 0.018888 -0.127563 0.227435 0.142555 -0.193890 0.195752 0.104741 0.312447 0.144227 -0.190941 0.069347 -0.075068 -0.101178 0.090413 -0.016881 -0.093424 0.065969 -0.007738 -0.221184 -0.022465 0.045832 0.119488 0.015089 0.209793 0.088646 0.047125 0.006867 -0.148108 -0.193990 -0.019180 -0.062761 0.222005 -0.167228 0.052024 0.047626 0.117281 0.111812 -0.060727 0.171145 -0.143708 0.264973 -0.332395 
纯棉 -0.083281 0.219317 0.016851 0.085226 0.064480 -0.083497 0.149028 -0.047256 -0.097710 -0.006390 0.161310 0.071384 -0.138376 -0.004777 0.178225 0.031716 0.014635 -0.208697 0.196096 0.193713 -0.165489 0.155125 -0.078912 0.000828 0.072359 0.055962 -0.205860 0.174805 0.094452 0.110218 -0.094754 0.023983 0.113860 0.085696 -0.003292 0.151350 -0.072974 -0.113711 0.043892 0.494662 -0.087785 -0.038004 -0.042380 0.022626 -0.080593 -0.040049 -0.013090 -0.349438 0.249628 -0.221664 
上身 -0.246569 0.130612 0.040793 -0.111254 0.100336 0.066137 -0.018791 -0.099404 0.046670 -0.192495 0.231437 0.132478 -0.174475 0.202439 0.128351 0.238804 0.154162 -0.144012 0.037807 -0.070208 -0.164672 0.140934 -0.102011 -0.202918 0.063698 -0.035213 -0.155307 -0.021799 0.053208 0.130453 0.045413 0.248864 0.111304 0.048643 -0.124310 -0.154478 -0.142970 -0.002290 0.046456 0.143525 -0.143999 0.136310 0.081709 0.079939 0.039941 -0.094985 0.147624 -0.143211 0.257286 -0.334278 
特别 -0.101790 0.097214 0.180986 -0.071167 -0.048165 0.231087 0.008136 -0.093376 0.230007 -0.092700 0.242819 0.190780 -0.115084 -0.028081 0.256586 0.168520 0.106482 -0.104986 0.040747 -0.006889 0.136131 0.099170 -0.246423 -0.211546 -0.124591 -0.005072 0.039356 0.261657 0.085099 0.187514 -0.050803 0.235741 0.020226 0.044444 0.032396 0.048896 0.034291 -0.102043 0.144883 0.061745 -0.271321 0.111832 -0.061380 0.063909 0.076547 0.121814 0.380377 -0.212886 0.201581 -0.275105 
料子 -0.160532 0.065156 0.101979 0.031932 -0.207538 0.037534 -0.013421 -0.089213 0.049940 -0.122514 0.188768 0.069939 0.045129 0.191816 0.086871 0.378773 0.282095 -0.314062 0.108209 -0.089436 0.121016 -0.014300 0.130476 -0.004195 -0.045893 0.229618 0.098063 0.082773 0.015186 0.000372 -0.149733 0.159045 0.130560 -0.007748 0.004517 -0.097548 0.050532 -0.319685 0.146238 0.242593 0.006403 0.039288 0.013317 0.042970 -0.088597 0.012246 0.236456 -0.128964 0.249129 -0.316033 
小 -0.074125 -0.143646 0.230391 0.004968 -0.232774 0.132273 0.036492 0.085021 0.239412 -0.277723 0.026007 0.355682 -0.077961 0.234523 -0.051239 0.010729 0.178600 -0.190072 0.177244 -0.119572 0.058838 0.240687 -0.034955 -0.072432 -0.178524 0.183710 -0.178781 0.128654 -0.005624 0.047766 0.320022 0.171305 -0.009150 -0.116188 0.208445 0.183037 -0.138134 -0.067667 0.093041 -0.113521 -0.160933 0.081713 -0.490466 0.065429 0.181457 0.204323 0.358083 0.096355 0.351646 -0.499061 
合身 -0.188307 0.137429 -0.190392 0.150963 -0.042015 0.127354 0.058362 -0.053117 0.131467 0.030678 0.172717 0.266744 -0.067949 0.053202 0.230604 0.152947 0.196016 -0.061563 0.045182 0.009087 -0.228531 0.119202 -0.148197 0.028629 -0.052167 -0.010565 -0.077079 0.067500 0.063931 0.053880 -0.131482 0.024075 0.038483 0.075526 0.081159 0.136594 -0.088462 -0.060382 -0.045886 0.265021 -0.107101 0.170629 -0.169603 0.063114 -0.066320 -0.047953 0.179355 -0.126745 0.163076 -0.203387 
值得 -0.078774 0.159303 -0.004622 -0.004507 0.189925 -0.108377 0.133467 0.134259 0.101140 0.001652 0.052391 -0.168965 -0.169273 0.059094 0.199665 0.164488 -0.093545 0.087532 0.160080 -0.047764 -0.211132 0.157064 -0.297871 -0.100001 0.079823 0.036880 -0.225260 0.139899 -0.054014 0.197194 0.083865 0.174042 0.147655 0.095691 0.029765 0.262572 -0.199618 -0.214327 -0.175812 0.321993 -0.215718 0.381103 0.082174 0.305569 -0.124688 -0.153785 0.172494 -0.183045 0.170639 -0.330971 
价格 -0.038520 0.293986 0.032732 -0.175088 0.057982 0.107964 -0.022784 -0.017528 -0.066147 -0.000730 0.192575 0.162515 -0.133597 0.173387 -0.013703 0.120553 -0.135731 -0.087762 0.026482 0.261757 -0.169396 -0.071477 -0.098453 -0.014855 0.069078 -0.052141 -0.142790 0.380376 0.040412 0.001638 -0.101390 0.054429 0.078015 0.088970 0.082218 0.199713 -0.173163 -0.267880 0.062681 0.204528 0.033388 0.384106 0.283993 0.223835 0.036759 -0.028169 0.018318 -0.281983 0.355786 -0.383010 
太 -0.129365 0.221886 0.169717 0.058819 -0.097723 -0.034565 -0.220123 -0.269632 -0.054935 -0.148677 0.300701 0.148472 -0.055096 -0.006100 -0.032050 0.374797 -0.033218 -0.143272 0.043128 0.020401 -0.081392 -0.046314 0.089430 0.036702 -0.246072 0.019828 -0.288090 0.117706 0.014057 -0.035668 -0.120057 -0.114689 -0.144084 -0.025164 -0.016234 0.328656 -0.118886 -0.221614 0.120476 0.053599 -0.035873 0.158607 -0.073182 0.054103 0.108985 0.076314 0.147012 -0.039690 0.185135 -0.309398 
卖家 0.017872 -0.239272 -0.283514 -0.044431 0.049202 0.093418 0.010805 0.103715 0.114967 -0.076629 -0.012829 0.109321 -0.022151 0.059439 0.030155 0.108200 0.068087 -0.088271 0.258405 -0.080912 0.131185 0.198553 -0.003865 -0.096537 -0.040283 0.054283 -0.308016 -0.222889 0.211110 0.158883 0.211603 0.013444 -0.046027 0.087802 0.176233 0.418226 -0.112270 -0.232922 0.200614 0.016121 -0.425511 0.207183 -0.433267 0.323263 0.297007 0.125393 0.116026 -0.143658 0.285346 -0.429055 
没 0.045419 0.068897 -0.014541 -0.126825 -0.104120 -0.078800 0.006241 -0.112684 -0.001685 0.108068 0.075109 0.293704 -0.149879 -0.031372 0.271284 0.303194 0.136529 -0.047224 -0.017181 0.119115 -0.028227 -0.007601 0.358042 -0.099092 -0.242272 0.113424 -0.306219 0.179708 0.013905 0.028218 0.057335 -0.245532 -0.170508 0.110568 -0.148953 0.147745 -0.150585 -0.353776 0.178524 -0.020286 -0.104369 0.042579 -0.080432 -0.031486 -0.117638 0.054699 0.312205 -0.149015 0.018213 -0.305502 
说 -0.120243 -0.006251 0.142086 -0.252756 0.070528 -0.095920 0.211122 0.033465 0.207036 0.007926 0.111744 -0.007573 -0.098010 -0.169540 0.056799 0.476700 0.117003 -0.152181 -0.067447 -0.130583 -0.168400 0.075006 0.330877 0.064889 -0.140802 0.167183 -0.168033 0.204975 0.398079 0.117288 0.053818 0.065451 -0.137852 0.056767 -0.330935 0.308267 0.073573 -0.241588 0.424204 -0.071111 0.102892 0.139277 -0.123930 0.007951 0.012141 0.309028 0.158770 -0.261860 0.174757 -0.203995 
到 0.076996 0.294916 -0.032551 -0.331127 -0.000169 -0.016584 0.012413 -0.045298 -0.080319 0.152190 0.072750 0.377309 -0.033641 0.175388 0.116511 0.335032 0.131861 0.116235 -0.029460 0.087041 0.019380 -0.028309 0.109504 0.062872 -0.395992 0.108998 -0.298223 0.030016 0.065809 -0.109044 -0.095098 -0.138597 -0.125472 0.123737 0.034102 0.315731 0.093342 -0.337279 0.176584 0.025182 -0.051522 0.172147 0.000147 0.204596 -0.074610 0.192915 0.184814 -0.183711 0.151794 -0.376240 
推荐 -0.246199 0.039409 -0.065764 0.025854 0.007518 -0.021191 0.021602 -0.104024 0.168240 -0.097368 -0.038422 0.250089 -0.011610 -0.041982 0.118122 0.215628 0.111667 0.009282 -0.002324 -0.033096 -0.148021 0.235598 -0.175474 0.071438 0.042486 0.098164 -0.180451 0.239620 -0.061135 0.080828 0.222469 0.029611 0.033355 0.118194 0.113198 0.303970 -0.012006 0.100310 0.037550 0.178745 -0.001615 0.305250 -0.320789 0.223248 -0.055027 -0.013114 0.229572 -0.223227 0.136640 -0.375390 
再 0.113285 0.015214 -0.009631 0.147820 0.043982 -0.082463 -0.032610 -0.119611 0.212429 -0.009452 -0.047327 -0.027957 -0.198966 0.100955 -0.038344 0.145476 0.306147 0.125722 0.015129 0.308507 -0.257207 0.090795 0.123905 -0.047666 -0.030857 0.089044 -0.154769 0.148663 0.148822 0.043493 -0.139747 0.028237 -0.088554 0.155837 0.173722 0.224938 0.017238 -0.252822 0.070378 0.132022 -0.103181 0.213019 -0.092563 -0.031007 -0.020028 0.111296 0.377902 0.066105 0.328547 -0.274580 
做工 -0.091208 0.056789 -0.140837 -0.032348 0.031989 -0.097852 0.018709 -0.159213 -0.206209 0.007754 0.518530 0.155233 -0.314705 -0.138772 0.385446 0.203263 -0.032178 -0.169102 -0.115754 -0.064507 -0.067905 -0.165590 -0.129035 -0.172715 -0.108212 0.110444 -0.041966 0.135059 0.201179 -0.061102 -0.087353 -0.157631 0.346454 0.123629 0.248006 -0.057403 -0.201896 -0.020795 -0.044249 0.595715 -0.267509 0.038692 0.099167 0.190985 -0.129572 -0.114154 0.054608 -0.159420 0.143558 -0.333777 
客服 -0.156008 -0.153482 -0.176139 -0.042502 -0.050540 -0.195881 0.232513 -0.019538 -0.093828 -0.218730 0.022556 0.287528 0.005928 -0.278950 0.023222 0.559254 0.161147 0.026061 0.192766 -0.001759 -0.061648 0.154839 0.139765 0.045224 -0.106732 0.076070 -0.254909 0.049502 -0.027001 0.093438 0.343424 -0.008696 -0.102541 0.169272 0.201431 0.373640 -0.156779 0.092199 0.094320 -0.114798 -0.283143 0.212523 -0.549028 -0.077819 0.058171 0.094281 0.305733 -0.197981 0.091064 -0.188623 
款式 -0.105387 0.068107 0.007655 -0.018619 0.141035 0.123080 0.118103 0.027513 0.047177 -0.112026 0.228170 0.098929 -0.094533 -0.043290 0.070298 0.141965 0.080750 -0.085698 -0.004506 0.066449 -0.033033 0.014554 -0.100207 -0.173044 -0.066816 0.104350 0.027907 0.200975 0.168492 0.101620 0.082966 0.225671 0.084345 0.126895 -0.154570 0.156364 -0.360748 -0.122100 0.132868 0.367443 -0.126736 0.207739 -0.052259 0.057061 -0.013138 0.002838 0.021724 -0.138154 0.329277 -0.262189 
感觉 -0.073248 0.194503 0.166329 0.039115 -0.191410 0.109556 0.103048 -0.110475 0.092949 -0.211438 0.131805 0.107290 -0.039433 0.155513 0.089462 0.219406 0.074050 -0.166214 -0.011330 0.036499 0.166462 0.035816 0.089762 -0.092177 -0.152122 0.280565 -0.261835 0.312765 0.058456 -0.019861 -0.160735 0.130412 0.186019 -0.089006 -0.131100 -0.040800 -0.082824 -0.070740 0.238308 0.004587 0.026214 0.057556 -0.101803 -0.257041 -0.100709 0.134781 0.194296 0.047451 0.176524 -0.426234 
下次 0.428635 0.186586 -0.288504 0.136481 0.062704 -0.029649 0.103173 -0.048280 0.446670 -0.104679 0.061772 0.095152 -0.188903 -0.077432 0.076807 0.112795 0.199387 -0.068415 0.086175 0.271625 -0.226640 0.211929 -0.079656 -0.118814 0.180419 -0.025157 -0.086015 0.029256 0.250813 0.069045 -0.197669 0.161710 -0.048954 0.158696 0.271060 0.264316 -0.081963 -0.199446 -0.073180 0.001980 -0.045927 0.438426 -0.085601 0.166984 0.314255 -0.143383 0.300701 -0.047962 0.476191 -0.281371 
大小 -0.035007 0.140006 -0.223696 0.157054 -0.070237 -0.075671 0.196873 -0.088289 -0.033219 -0.068092 0.041667 0.205096 0.045348 0.085873 0.175985 0.026596 0.067654 -0.081344 -0.135078 0.019898 -0.106082 0.110093 -0.034720 -0.019987 0.008283 0.096911 -0.192649 0.000436 0.154735 0.025094 -0.012157 0.034612 0.284189 0.165149 0.125992 0.185322 -0.091236 -0.008487 0.169906 0.481955 -0.069638 0.112774 -0.049422 -0.059053 -0.033085 -0.096013 0.091920 -0.157408 0.004174 -0.284232 
图片 0.254390 -0.066223 -0.123226 -0.178344 -0.113337 0.166454 -0.047511 -0.329345 0.007136 -0.266250 0.247708 0.015746 -0.128454 0.190661 0.302972 0.277914 -0.160421 -0.344469 -0.246328 -0.071392 0.105184 -0.085141 0.029254 -0.301423 0.153598 0.041573 -0.653437 -0.189336 0.128305 -0.072468 0.013569 0.110034 0.100422 -0.500376 -0.146314 -0.006533 -0.147102 -0.181177 0.118281 0.386161 -0.022795 0.255945 0.143619 -0.299975 0.027094 0.210055 0.174121 -0.015367 0.048615 -0.367052 
送 0.101976 -0.232474 0.249247 0.040368 -0.053475 0.404506 -0.109820 0.073351 0.345112 -0.037110 -0.091487 0.301784 -0.343879 0.442520 -0.051982 -0.101959 0.053798 -0.339236 0.084615 -0.124698 0.265434 -0.070454 -0.102831 -0.301169 -0.143107 0.150837 -0.270037 -0.139271 -0.037776 -0.038311 0.233127 0.250223 0.116325 0.016398 0.117195 0.327190 0.041875 -0.445744 0.188024 -0.247244 -0.272708 0.098850 -0.548813 0.469129 0.377413 0.290504 0.413279 0.013125 0.283741 -0.638406 
布料 -0.088704 0.097780 -0.076236 0.036201 -0.084191 0.185060 -0.139456 -0.021397 -0.048239 -0.149003 0.307733 0.228010 -0.093298 0.183363 0.024323 0.162061 -0.066219 -0.202522 0.042180 0.011531 0.077785 -0.098938 -0.043988 -0.188035 -0.060826 0.231301 0.115846 0.178201 0.057889 0.069841 -0.235017 0.133820 0.303994 -0.024913 -0.000729 0.025809 -0.096718 -0.184610 0.285731 0.317246 -0.147909 -0.032324 0.001539 -0.041283 -0.257641 0.005180 0.227116 -0.237527 0.242682 -0.336412 
洗 -0.071089 0.290681 0.011440 0.408492 0.076935 -0.230233 0.119994 -0.318228 0.077556 -0.012189 0.102098 0.185684 -0.263330 -0.017423 0.321131 -0.035516 0.175758 -0.119310 0.395757 0.338930 -0.084774 0.291253 0.425175 -0.207958 0.005682 0.292419 -0.199744 0.074051 0.565281 0.016194 0.055614 -0.159429 0.060742 -0.092425 -0.233742 -0.150988 0.252770 -0.375658 -0.225895 0.225725 0.001973 -0.229088 -0.117224 -0.253160 -0.110096 -0.204010 0.344711 -0.085045 -0.020943 -0.392680 
尺码 -0.089958 -0.024599 -0.008814 0.056383 -0.195853 -0.231099 -0.179858 -0.079135 -0.265743 -0.225255 -0.041063 0.218955 0.018544 -0.059406 0.329990 0.235682 0.021690 -0.153365 -0.055734 -0.058394 -0.244418 0.217288 0.135981 0.000229 0.024048 -0.005550 -0.145233 0.079082 0.021274 0.066213 0.114389 0.036906 0.364552 0.141141 0.246422 0.225442 -0.163953 0.079256 0.086278 0.449773 -0.182477 0.362967 -0.249408 0.152595 0.002457 -0.273611 0.265178 -0.088772 0.048859 -0.218226 
服务 -0.016807 -0.127294 -0.260659 0.191463 -0.021623 -0.128236 0.133916 0.123840 0.014164 -0.041734 0.086615 0.174198 0.129370 -0.235680 0.083774 0.473562 0.140735 0.009516 0.048984 0.049319 -0.035029 -0.050997 -0.102239 -0.079220 0.027951 -0.021847 -0.254810 -0.280577 0.158422 0.333862 0.113997 0.129697 0.044627 0.248241 0.060527 0.407267 -0.318266 -0.079396 0.091992 -0.053650 -0.522610 0.485905 -0.473729 0.150667 0.148072 0.026078 -0.061840 0.005842 0.337135 -0.080965 
想 0.021003 0.029528 0.127874 -0.204490 0.092852 -0.226988 -0.108818 -0.133534 -0.094010 -0.202574 0.183527 0.027661 -0.187644 -0.017677 -0.153984 0.241214 -0.001423 -0.047389 0.233546 -0.019906 0.060940 0.079393 -0.033851 0.098073 -0.218186 0.094841 -0.254100 0.246100 -0.014106 0.001829 -0.036744 0.117923 -0.305917 0.063728 -0.217326 0.122057 -0.213029 -0.140179 0.335616 0.121885 -0.020741 -0.088413 -0.119117 0.000056 -0.058312 0.162223 0.310574 -0.212994 0.168031 -0.301730 
态度 -0.064861 -0.217520 -0.359614 0.113873 0.059875 -0.187680 0.216827 0.089186 0.108602 -0.054283 0.004442 0.280943 0.053033 -0.140296 -0.074600 0.400541 0.223992 -0.005457 0.144066 0.112739 0.121755 -0.022209 -0.007694 -0.134372 -0.048522 -0.029044 -0.231532 -0.238297 0.041675 0.328659 0.064202 0.158203 -0.116060 0.117674 0.171658 0.389605 -0.274503 -0.088698 0.130296 -0.088654 -0.391368 0.460186 -0.487586 0.031165 0.148182 0.047042 0.051338 -0.039082 0.256792 -0.184082 
棒 -0.276999 0.011435 0.158021 -0.158270 0.195906 0.099676 0.097132 -0.141687 0.095697 0.313233 0.055891 0.204114 -0.114981 -0.029752 0.098503 0.027934 0.363639 -0.102020 0.097442 0.108683 -0.089464 -0.126001 -0.193528 -0.267008 -0.190742 0.205517 -0.247842 0.078373 0.149268 0.083969 -0.123049 0.151413 -0.123005 0.386869 0.023778 0.072958 -0.194448 0.026560 -0.082975 -0.062120 -0.102800 0.190211 -0.015951 0.293682 0.202325 0.091225 0.250499 -0.191431 0.484428 -0.413195 
便宜 0.091807 0.290486 0.121863 -0.180541 0.095019 -0.122100 -0.076489 -0.135560 0.021880 -0.051951 0.210797 0.166073 -0.057412 0.112112 0.042655 0.173729 -0.048718 -0.027236 0.151466 0.185759 -0.129568 -0.041343 0.006881 0.110067 -0.123590 0.005831 -0.146099 0.201920 -0.121745 -0.013105 -0.131095 -0.104868 -0.212997 0.149826 -0.078624 0.073848 -0.188226 -0.464220 0.041855 0.148245 -0.008042 0.249922 0.145513 0.275028 0.012636 -0.003648 0.012808 -0.364524 0.267122 -0.359139 
色差 -0.073148 -0.192243 -0.050937 -0.173584 -0.304311 0.028635 -0.090967 -0.176603 -0.034241 -0.032933 0.096351 0.181053 -0.284004 0.119547 0.272180 0.175470 -0.111154 -0.046980 -0.262909 0.117318 0.111555 -0.208794 0.082770 -0.244653 0.011535 0.036503 -0.383390 -0.086948 0.022230 0.055417 -0.002942 0.043707 0.211687 -0.181807 -0.218051 0.067928 -0.054831 0.000037 -0.104160 0.306769 -0.078938 0.228017 0.068055 -0.094983 0.064863 0.146784 0.229053 -0.039786 0.126697 -0.560641 
衬衫 0.012544 0.295551 0.208792 -0.065811 -0.216771 -0.052887 0.000962 -0.154212 0.082470 -0.078313 0.249178 0.070835 -0.022670 -0.012897 0.026795 0.118909 0.091739 -0.190590 0.172531 0.062244 -0.041611 0.031905 -0.091590 -0.291456 -0.089550 0.074715 0.018393 0.256852 0.026059 -0.008186 -0.023005 -0.055557 0.059142 0.209026 -0.064092 0.119981 0.005154 -0.134686 0.231219 0.251254 -0.079701 0.206258 -0.064361 -0.065637 -0.099567 0.089013 0.148271 -0.227676 0.172535 -0.341495 
购物 0.036728 0.166356 -0.010421 -0.082956 0.264716 0.120820 -0.056864 0.056272 0.288754 -0.070294 0.015410 0.175092 -0.097297 0.020917 0.135688 0.046984 0.062174 -0.504707 0.245686 0.223907 -0.058821 0.257791 0.019146 -0.006567 0.108002 -0.010703 -0.345601 -0.118360 -0.129977 0.144512 -0.268709 0.056470 -0.049325 0.210993 -0.036745 0.128671 -0.136587 -0.087952 0.212321 0.062600 -0.721671 0.716836 -0.269350 -0.012514 0.264432 0.079717 0.028266 -0.082204 0.288088 -0.012328 
非常好 0.098677 0.056856 -0.196084 -0.080435 0.010571 -0.060409 0.090329 0.003997 0.204400 -0.099300 0.172966 -0.066706 0.014222 -0.022107 0.227288 0.151182 -0.197646 -0.010907 0.176617 -0.020219 -0.106243 0.150419 -0.066861 0.073783 -0.064328 0.061367 -0.173876 0.019436 0.101494 0.177980 -0.111521 0.165120 0.187989 0.270655 0.124390 0.276712 -0.020544 -0.217806 0.027858 0.272535 -0.252375 0.372219 0.081451 0.264162 0.206095 -0.001102 0.142269 -0.287633 0.318034 -0.192790 
朋友 0.124075 0.174632 0.147013 -0.210283 0.255790 -0.047777 0.193878 -0.006279 0.071957 -0.006262 0.163323 -0.165647 0.052263 -0.399998 -0.064497 0.300972 0.142060 0.311754 0.022891 -0.074750 -0.318312 0.221061 0.139252 0.213925 0.062870 -0.026143 -0.214543 0.370388 0.284955 0.366522 -0.281413 0.277461 -0.211913 -0.006433 -0.055262 0.367214 0.253012 -0.124930 0.210182 0.279384 -0.114027 0.022734 -0.019653 0.147670 -0.004006 0.042103 0.083501 -0.448906 0.004960 -0.374374 
下 0.035220 0.089783 -0.270075 -0.075352 0.080512 0.033805 -0.013527 -0.136979 -0.006869 0.173525 0.062886 0.212787 -0.295592 0.296981 0.199509 0.017843 0.244678 0.099162 0.053386 -0.002656 -0.065425 0.096372 0.167743 0.020295 -0.028739 0.207924 -0.505215 0.145894 0.174859 -0.126155 -0.026172 0.164274 -0.085774 -0.016390 -0.065028 -0.048918 0.054162 -0.077569 0.207887 0.453145 -0.261500 -0.157991 -0.301529 0.053658 -0.122911 0.040411 0.082274 0.001438 0.005466 -0.528181 
比较 -0.380885 0.074535 0.156711 0.028290 0.048188 0.134709 -0.033747 -0.007763 -0.236469 -0.044742 0.223626 0.350884 -0.047439 0.190096 -0.004984 0.369160 0.062978 -0.337116 -0.036737 -0.119445 0.070119 -0.018102 0.105061 -0.277365 0.158272 0.062346 0.098427 0.245036 -0.029310 0.016201 -0.094603 0.011319 0.188291 -0.087420 0.022255 0.059528 0.031726 -0.165548 0.265905 0.282237 -0.106885 0.076422 -0.040581 -0.352831 -0.046473 0.060123 0.079811 -0.041298 -0.058909 -0.537948 
拍 -0.111777 -0.213914 -0.022293 -0.325507 -0.265126 -0.323886 -0.155630 -0.270385 0.028592 0.006621 0.148903 0.178201 -0.185594 -0.059193 -0.134898 0.349568 0.250960 0.083457 0.140440 -0.079113 -0.303630 0.218528 0.159094 -0.162181 0.087301 0.087976 -0.485987 -0.074665 0.028388 -0.114519 0.102318 0.099022 -0.158555 0.044854 -0.050532 0.270387 -0.395503 0.070249 0.153021 0.114646 -0.071470 -0.041928 -0.167115 -0.043478 -0.218246 0.232819 0.286662 0.126510 0.071836 -0.346842 
码 -0.240343 -0.083901 0.221642 -0.092697 -0.228919 -0.235980 0.133097 -0.125048 -0.010177 -0.373440 0.054679 0.374034 -0.035616 -0.073547 -0.041607 0.180964 0.033375 -0.003563 0.098759 -0.069160 -0.490762 0.385306 0.232165 0.115621 -0.043222 -0.032971 -0.143388 0.168653 -0.061103 -0.009524 0.041820 0.043044 -0.086755 0.091867 0.239450 0.332356 -0.439901 0.076174 0.098295 0.294965 0.159057 0.075194 -0.441842 -0.073735 0.011845 0.061448 0.337987 0.092716 -0.118457 -0.306033 
真 -0.069996 0.112059 0.072733 -0.077667 0.029702 -0.085466 -0.000631 -0.110453 0.035220 -0.045575 0.163576 0.251822 -0.265804 0.067873 0.116820 0.315141 0.114242 -0.054626 -0.048694 0.083481 0.038426 0.048135 -0.070861 -0.017274 -0.287829 0.070595 -0.166295 0.262369 0.176299 0.005348 -0.039206 -0.050834 -0.153308 -0.024870 -0.089010 0.149788 -0.065605 -0.290685 -0.057659 0.158132 -0.235814 0.040947 -0.134517 0.391795 0.009227 0.222638 0.279472 -0.200546 0.178173 -0.178512 
快递 -0.067382 0.308992 -0.422348 0.131369 -0.065122 0.019055 0.192693 -0.098484 0.078145 0.055146 -0.139802 0.440166 -0.034637 0.050805 -0.003931 0.525608 0.195457 -0.157345 -0.091693 0.045902 0.167832 -0.130721 0.049364 0.056804 -0.283937 0.055172 -0.245087 -0.318083 0.182911 0.231501 0.121389 0.040801 0.026042 0.103482 0.061996 0.550353 -0.052678 -0.227033 0.356990 -0.170836 -0.338753 0.175092 -0.352324 -0.021550 0.043539 0.096834 -0.026695 0.057797 0.122801 -0.356897 
店家 0.197022 -0.271718 -0.047289 0.067784 0.044869 -0.088304 0.158288 -0.038895 0.309635 -0.082497 0.129042 0.279345 0.010500 0.069562 0.068453 0.222002 0.044250 -0.235301 0.119027 0.062616 -0.090335 0.210846 -0.044232 -0.209925 0.038976 -0.047079 -0.163604 -0.135764 0.167202 0.172186 0.043252 0.003183 -0.205198 -0.007912 0.382918 0.394483 -0.056474 -0.076639 0.340573 -0.184411 -0.336653 0.437086 -0.596944 0.366126 0.249021 0.020944 0.153290 -0.036781 0.235179 -0.375128 
比 -0.007796 0.127758 0.247300 0.093255 -0.209186 -0.287346 -0.018687 -0.456158 0.195270 -0.241080 0.386311 -0.046578 0.297726 0.234548 0.151230 0.215563 0.149404 -0.100678 -0.492795 0.129732 -0.183815 -0.216782 0.249957 -0.288134 0.055768 0.121924 0.040592 0.136190 -0.267212 0.072784 -0.205076 0.028465 -0.156316 -0.233166 0.254533 0.042596 -0.450013 -0.584364 0.221933 0.239970 0.299766 0.242029 0.191117 0.094915 -0.026439 0.127992 0.212562 -0.145536 0.143595 -0.356923 
同事 -0.024717 0.266033 -0.025346 -0.136673 -0.038525 -0.155820 0.033103 -0.193814 0.289326 -0.013581 0.296258 -0.207082 -0.039770 -0.395327 -0.091738 0.115513 0.214471 0.276526 -0.018021 -0.159645 -0.368552 -0.012128 0.141406 -0.012977 -0.087173 0.260797 -0.345121 0.446113 0.314435 0.231374 -0.054974 0.334990 -0.229661 0.235808 -0.097790 0.369350 0.176943 -0.091609 0.302766 0.127118 -0.030767 0.210127 0.121182 0.112455 0.056521 -0.034342 0.076768 -0.412377 0.079884 -0.158616 
还行 -0.114038 0.168931 -0.049953 0.221635 -0.378886 -0.030848 0.054351 -0.136081 -0.341376 -0.197286 0.018473 0.177712 -0.096422 0.159823 0.192852 0.281576 0.023807 -0.248241 0.100295 0.236830 0.148470 -0.064121 0.449151 0.065593 -0.205053 0.155328 -0.314161 0.080514 0.085997 0.086622 -0.059140 -0.004399 0.113212 -0.154108 0.103499 -0.098065 -0.106503 -0.184077 0.218927 0.000570 0.310855 0.164721 0.086864 -0.320703 0.030009 -0.062076 0.211219 0.255084 0.164389 -0.484491 
&hellip 0.151577 0.206832 0.350821 -0.194131 0.429483 0.208305 0.418401 -0.416453 -0.280151 0.283136 -0.217845 -0.009736 -0.014899 0.201594 -0.179764 0.224277 0.564300 -0.087201 -0.162716 -0.403574 0.459556 0.323017 -0.352477 0.342817 -0.305639 0.190123 -0.652108 0.254507 0.637512 0.013990 -0.184135 0.053610 0.246058 -0.136515 0.042573 -0.272672 -0.663572 -0.161335 0.310312 -0.416074 0.010895 0.376915 0.145823 -0.514810 0.179477 0.135163 0.247828 0.007926 0.193974 -0.602859 
天 -0.019051 0.351041 -0.027451 -0.310310 0.014570 -0.196334 0.421030 0.113227 0.194781 0.203626 -0.035265 0.149906 -0.063772 -0.002367 -0.176705 0.406450 0.192089 0.076129 -0.192566 0.250755 0.148950 -0.106080 0.346221 -0.077684 -0.213185 0.288685 -0.340152 -0.098155 0.237527 -0.009953 0.051633 -0.276468 0.076163 0.322418 -0.187859 0.351175 0.198344 -0.318857 0.430046 -0.074312 -0.349640 0.155552 0.004512 -0.122858 -0.260994 0.185910 0.224034 0.079490 -0.045586 -0.426464 
两 0.084565 0.211675 0.271294 0.004844 -0.105037 0.009974 0.220076 -0.120359 0.259080 -0.000135 -0.159844 -0.051347 -0.198452 -0.090377 -0.097407 0.269012 0.162823 0.200579 0.118285 0.032610 -0.073486 -0.118827 0.240308 -0.002272 -0.162064 0.166374 -0.251932 0.173118 0.309692 0.147043 -0.011525 -0.033390 -0.051069 0.075413 0.145027 0.176341 0.005832 -0.231217 0.314266 0.016818 -0.301596 0.060879 -0.001994 0.086047 -0.074274 0.337806 0.315274 -0.041399 0.074090 -0.363283 
发货 -0.094189 0.065690 -0.404800 -0.157668 -0.047125 -0.098076 0.151198 0.152095 0.036465 0.111352 0.017015 -0.045571 0.084125 0.041079 0.226302 0.664126 0.148662 -0.060704 0.227456 0.071725 0.324140 -0.150245 0.194878 0.060144 -0.241317 0.082308 -0.520457 -0.420358 0.312497 0.123125 0.328918 0.163473 0.084302 0.114819 0.175429 0.465516 -0.283239 -0.270136 0.070691 0.058068 -0.480975 0.250633 -0.189270 0.125780 -0.089547 0.068891 -0.204900 -0.045642 0.025416 -0.374867 
袖子 -0.330144 0.098551 0.330375 -0.054863 -0.266279 0.581119 0.086614 -0.127719 -0.166002 -0.299786 -0.004550 0.237998 -0.041214 0.344382 -0.078093 0.254801 0.010650 0.003210 0.000228 -0.084940 0.282606 -0.069256 -0.026750 -0.197490 -0.236601 -0.004482 -0.102729 0.307848 0.076452 -0.057627 0.253142 0.192691 0.035814 -0.001764 0.139314 -0.190737 0.129271 -0.233344 0.340251 0.062433 -0.143073 0.183588 0.020440 -0.215936 0.214991 0.088881 0.439354 0.165165 0.292522 -0.466611 
摸 -0.100432 0.000442 -0.119833 0.090748 -0.188502 0.261895 -0.010410 0.008893 -0.106194 -0.081284 0.184030 0.238052 -0.179199 0.212684 0.112794 0.167983 0.110391 -0.240458 0.120280 -0.130129 0.294711 -0.160209 0.013077 -0.107804 -0.023819 0.243841 0.079352 -0.008253 0.008749 0.132924 -0.240215 0.075118 0.353439 -0.035054 -0.035769 0.003883 0.002047 -0.324878 0.243001 0.227092 -0.128713 -0.029306 -0.216840 0.111016 -0.159895 0.035659 0.360398 -0.201781 0.224366 -0.275268 
物美价廉 0.078553 0.052601 -0.017943 -0.168598 0.089977 -0.010103 -0.001878 -0.118051 -0.079543 0.173052 0.157216 -0.069398 -0.065241 -0.028203 0.035278 0.161670 0.001375 -0.093924 0.099788 0.080058 -0.340283 0.015358 -0.280964 -0.269255 -0.129621 0.127579 -0.093777 0.214983 0.002904 -0.027834 -0.081717 0.126510 0.075827 0.036215 0.002242 0.240480 -0.098386 -0.230429 0.072420 0.227816 -0.209512 0.396811 -0.060708 0.173631 -0.035485 0.145978 0.155175 -0.307138 0.389818 -0.237258 
棉 -0.130281 0.169468 0.120298 0.226791 -0.107716 0.063374 0.052895 -0.060602 -0.130713 -0.118578 -0.032418 0.168742 -0.019334 0.007281 0.004633 0.192723 -0.036482 -0.022245 0.222050 0.210784 -0.129032 0.013234 -0.080371 0.086218 0.128581 0.156866 -0.385431 0.053224 0.134800 -0.094643 -0.187335 -0.021152 0.242269 0.036503 -0.154276 0.006605 -0.336469 -0.176980 0.091156 0.513306 -0.065479 -0.145531 -0.067299 0.128679 -0.102237 -0.306555 0.108045 -0.013690 0.323480 -0.208348 
型 -0.409197 0.393900 0.083463 0.098228 -0.021224 0.080435 -0.110787 0.062923 0.228587 0.011797 0.514181 0.175495 0.037956 -0.000370 0.191410 0.414839 -0.046888 -0.230966 0.330402 0.057155 -0.099785 0.117948 -0.084889 -0.373753 -0.188122 0.074050 -0.024786 0.226240 -0.183517 0.001020 -0.134918 -0.197455 0.164421 0.069628 0.065801 -0.183935 -0.147359 0.251097 0.191067 0.342772 0.090419 0.264748 0.165606 -0.019542 -0.061085 -0.153259 0.008329 -0.346020 -0.004281 -0.266369 
真的 0.039100 0.205195 0.186534 -0.277700 0.125145 -0.026621 -0.011801 -0.142269 0.058159 0.185384 0.238385 0.094232 -0.033529 -0.049660 0.226714 0.237156 -0.071866 -0.059249 -0.057773 0.098320 -0.010586 0.099635 -0.150929 -0.051961 -0.188631 0.050295 -0.233901 0.176188 -0.018298 0.007119 -0.076027 0.010559 -0.153110 0.126127 -0.064407 0.280953 -0.129905 -0.302243 0.136665 -0.124957 -0.104044 0.179750 -0.042416 0.184165 -0.219862 0.167595 0.444067 -0.478286 0.317032 -0.240150 
赞 -0.025545 0.341508 -0.009583 0.017624 0.121742 -0.001889 0.047098 -0.043491 0.172822 0.182053 0.103410 0.370640 -0.195933 0.145126 -0.151555 0.061076 0.035088 -0.070505 -0.029658 -0.008005 -0.150419 -0.039068 -0.191856 -0.034480 -0.264352 -0.125109 -0.237611 -0.051917 0.042182 -0.078754 0.179975 0.241484 0.029452 0.412831 0.099985 0.344281 -0.004842 -0.116732 0.128725 0.178432 -0.339619 0.233192 -0.074595 0.187705 0.079068 -0.034219 0.288029 -0.115141 0.388301 -0.215983 
正好 -0.285061 0.033989 0.068919 0.070910 -0.249501 0.071576 0.178570 -0.231446 0.117526 0.000388 0.174811 0.323469 -0.101652 0.144645 -0.008612 0.036971 0.037375 -0.063394 -0.142664 0.090916 -0.377187 0.308366 0.052617 0.091215 0.167392 0.063378 -0.117344 0.026348 -0.168831 -0.224056 0.192305 -0.051146 0.071976 0.440912 0.091534 0.332919 -0.089541 -0.015722 0.208097 0.338288 -0.086532 0.138516 -0.296442 -0.053789 -0.025733 -0.024350 0.264688 -0.017677 -0.160714 -0.401269 
分 0.182280 0.285907 -0.119935 0.130136 0.185288 -0.051077 -0.152989 -0.155345 -0.163533 0.210755 0.292681 0.143234 0.168714 0.025854 -0.049737 0.137471 -0.176593 -0.031447 0.034009 0.324869 -0.184214 -0.217017 0.039838 0.074106 -0.018669 0.021585 -0.366371 -0.089501 0.398557 0.214981 0.212558 -0.072054 0.021966 0.201133 -0.087573 0.546395 -0.252491 -0.015871 0.283884 0.289574 -0.035267 0.195308 -0.015056 -0.085411 -0.031271 0.170158 -0.014569 0.075268 0.465556 -0.168949 
多 0.037419 0.078323 0.172260 0.077990 -0.185814 -0.211950 0.120184 -0.317096 0.241217 -0.245618 0.504793 0.062763 -0.006621 -0.158961 0.068776 0.093219 -0.066886 -0.002268 -0.066079 0.186479 -0.106714 -0.111411 0.227802 -0.103533 -0.037394 0.084075 -0.302765 0.277288 -0.154839 -0.137347 -0.052736 -0.191786 -0.185628 -0.110912 -0.035858 -0.006699 -0.264820 -0.736794 0.284779 -0.039554 0.081837 0.299574 -0.045633 0.137214 -0.045810 0.084018 0.186022 -0.047176 0.065684 -0.184623 
版 -0.518509 0.508005 -0.048632 -0.041054 -0.042765 0.008735 -0.194451 0.129642 0.094739 0.019073 0.512271 0.280216 0.119234 -0.031285 0.187048 0.401164 0.097495 -0.208211 0.419539 0.084371 -0.167016 0.182221 -0.197477 -0.313956 -0.266187 -0.056181 0.009700 0.228696 -0.213930 0.095691 -0.071308 -0.156437 0.343637 0.059456 0.080130 -0.210914 -0.166467 0.327699 0.258864 0.502279 0.031453 0.226053 0.187213 -0.078233 -0.138665 -0.195445 -0.093348 -0.457132 -0.187996 -0.384974 
以后 0.249357 0.261425 -0.205070 0.249030 0.138922 -0.223000 0.129594 -0.024598 0.248511 -0.132902 0.111771 -0.018737 -0.261087 -0.203387 0.222962 0.134812 0.268639 0.094299 0.060688 0.319537 -0.099609 0.120373 -0.013375 -0.413546 0.076616 0.146860 -0.171013 0.198148 0.097911 -0.128739 -0.068257 -0.084108 -0.096705 0.203263 0.168730 0.136047 0.126160 -0.235925 0.053685 0.161172 0.011035 0.410559 -0.148384 0.088486 0.215879 0.060551 0.290637 -0.094086 0.461216 -0.202336 
柔软 -0.074549 -0.156979 0.016993 0.117079 -0.162061 0.137978 0.062950 -0.068132 -0.147700 -0.092574 0.252944 0.174341 -0.231009 -0.033332 0.333773 0.021990 0.088670 -0.325750 0.211025 -0.130957 -0.012039 -0.064911 -0.240210 -0.034984 -0.175915 0.200711 0.033921 0.080983 0.094446 0.126279 -0.046903 0.030645 0.481834 0.258477 -0.021599 0.096137 -0.086788 -0.203309 0.123426 0.424332 -0.275837 0.138485 -0.085043 0.003557 -0.349102 -0.229285 -0.071314 -0.208954 0.291763 -0.190730 
实惠 -0.015761 0.195611 0.021418 -0.190938 0.051648 0.111480 -0.071496 -0.092709 -0.012518 0.087594 0.117236 -0.008747 -0.236334 -0.030818 0.014424 0.120577 0.088461 0.072430 0.011980 0.036549 -0.166023 -0.063427 -0.206042 -0.154752 -0.058970 -0.148271 -0.133620 0.265286 -0.067235 0.063372 -0.160767 0.197729 0.166608 0.289595 0.031801 0.023982 -0.084823 -0.407050 0.062478 0.265104 0.004846 0.558911 0.299553 0.425573 -0.035158 -0.112751 0.126878 -0.205489 0.205564 -0.323670 
正 -0.112739 0.207400 -0.127238 0.169626 -0.184143 -0.041869 -0.000074 -0.072342 0.155339 -0.052699 0.064180 0.197272 -0.062251 -0.015056 0.054944 0.271235 -0.048239 -0.237224 -0.012678 0.115294 -0.164888 0.184609 -0.101238 -0.177243 0.070768 0.051115 -0.083900 0.073070 -0.139084 -0.035429 0.049143 0.067035 0.161999 0.078203 0.050053 -0.024890 -0.019040 0.236946 0.027610 0.385741 0.028543 0.187704 -0.049090 0.102538 -0.070724 0.057419 0.089789 -0.269923 0.036846 -0.562836 
一点 -0.152900 0.078857 0.029069 0.002671 -0.183524 -0.113795 -0.061434 -0.061505 -0.013477 -0.040990 0.278379 0.352997 -0.006804 0.043286 0.056088 0.235692 -0.043200 -0.049195 0.094285 -0.097457 0.023602 -0.000734 0.127842 -0.287593 -0.174348 0.260837 0.020147 0.255227 -0.130326 0.136882 0.032873 -0.049793 -0.014740 -0.144275 0.249466 0.083893 -0.002202 -0.074323 -0.031540 0.236772 0.233036 0.033787 -0.105930 -0.041691 0.132908 0.138374 0.453693 -0.142328 0.091768 -0.455825 
刚刚 -0.003212 0.221298 -0.000098 0.239096 -0.167587 0.003416 0.187910 -0.150327 -0.074034 -0.042583 0.121190 0.214767 -0.001793 0.104384 0.019252 0.032441 0.251801 -0.156572 -0.126066 0.086970 -0.113959 0.403212 0.078980 0.077360 0.030851 0.000281 -0.253750 0.006149 -0.110167 -0.017984 0.055631 0.076895 0.086690 0.213723 0.160721 0.102181 -0.141152 0.175817 0.030576 0.205539 -0.082161 0.125567 -0.357153 0.000776 -0.174315 0.038790 0.343059 -0.095356 0.054200 -0.444679 
全 0.232322 0.172171 -0.156479 0.291897 0.037768 -0.084823 0.115389 -0.280875 -0.173383 0.209225 0.132347 0.098907 0.269279 -0.101916 0.130071 0.225550 -0.278048 0.156702 0.253563 0.361294 -0.250451 0.028373 -0.359576 -0.112816 0.077689 0.087334 -0.461521 -0.160092 0.257161 0.047297 0.272613 -0.263252 0.056317 0.190592 -0.072095 0.349587 -0.333628 0.058900 0.121322 0.369911 -0.163176 0.008434 0.165307 0.135441 0.041593 -0.174494 -0.053004 0.034408 0.443934 -0.138364 
光顾 0.451750 0.255405 -0.281784 0.150068 0.052086 0.054937 -0.033064 0.025643 0.389264 -0.063030 0.158644 0.202244 -0.289763 -0.100078 0.094353 0.002594 0.129151 0.059213 -0.088141 0.332577 -0.212217 0.151502 -0.007212 -0.210833 0.225651 0.029326 -0.228825 0.005543 0.187566 -0.083319 -0.244323 0.181381 0.046525 0.248183 0.423312 0.347000 -0.021874 -0.240061 0.053382 -0.142511 -0.120316 0.586926 -0.142715 0.310364 0.345500 -0.078224 0.196030 0.016033 0.492404 -0.268601 
超 -0.085198 0.201907 0.318611 -0.188464 0.030709 0.032255 0.107263 -0.114680 0.064658 0.220602 0.077160 0.297388 -0.244687 -0.123832 0.164919 0.395147 0.018458 0.055689 0.112319 0.257443 0.028470 -0.146443 -0.286853 -0.006127 0.051606 -0.082571 -0.239151 -0.086014 0.087670 -0.160508 -0.025624 0.128758 0.049123 0.210428 -0.038296 0.166854 0.176362 -0.072114 0.235476 0.040580 -0.112059 0.415838 0.009599 0.223132 0.361334 0.228633 0.182710 -0.455611 0.402678 -0.315923 
第二 -0.118865 0.623630 0.214094 0.071036 -0.004216 -0.034108 0.142858 -0.074577 0.160525 0.074241 -0.122205 -0.462112 -0.124303 -0.033127 0.137820 0.224754 0.063085 0.072487 0.279184 0.149151 -0.523113 -0.281417 0.339486 -0.159450 0.064843 0.360614 -0.420799 0.116220 0.094757 0.129513 0.070869 0.091979 -0.139059 0.308148 -0.010303 0.226219 0.106846 -0.237763 0.208717 0.004813 -0.408803 0.387488 -0.048706 0.133021 -0.296853 0.235829 0.156698 -0.121531 0.023057 -0.034994 
亲 -0.027297 -0.026402 -0.055710 -0.365690 0.378369 -0.229944 -0.015138 -0.411435 -0.190653 0.095956 0.140245 0.049105 -0.075799 0.050264 -0.051963 0.182931 0.109625 0.346648 -0.017638 0.321292 -0.095899 0.417720 -0.244999 -0.102914 0.166698 -0.239582 -0.609255 0.206652 -0.093597 0.029507 -0.100550 0.361524 0.020831 0.079676 -0.170598 0.002169 -0.017134 -0.165295 0.120125 0.335066 -0.062568 0.283286 -0.223055 0.247399 0.096044 0.015430 0.383086 -0.374080 -0.063699 -0.300801 
衬衣 -0.054646 0.288594 0.461074 0.056510 -0.003643 -0.166629 -0.061652 -0.166239 0.145314 -0.206270 0.285140 0.047411 -0.121483 0.050696 0.156806 0.097347 0.080264 -0.086480 0.150040 -0.051125 -0.044984 -0.022382 -0.024181 -0.129741 -0.238555 0.121896 -0.074873 0.327664 0.057798 -0.076833 0.061667 -0.107057 -0.058595 0.240822 0.069244 0.205677 -0.097384 -0.194306 -0.050975 0.391684 -0.264804 0.168953 -0.007393 0.116523 -0.063589 -0.092898 0.050987 -0.354234 0.011056 -0.248821 
下手 0.068667 0.031113 0.096539 -0.581750 0.380562 -0.137882 0.056573 -0.350885 0.085290 0.283016 0.352826 0.219603 0.034992 0.260279 0.010353 0.076005 0.178270 0.246817 0.130402 0.340519 -0.022538 0.304037 -0.296051 0.036234 0.081444 -0.229559 -0.500265 0.347028 -0.146870 0.263180 -0.296287 0.600416 0.318386 -0.116341 -0.228407 -0.069110 -0.049610 -0.045146 0.211743 0.364224 -0.092502 0.295177 0.048739 0.519205 0.243654 0.170073 0.428288 -0.507580 -0.173152 -0.433326 
试穿 0.007628 0.187570 -0.311448 -0.045976 -0.029044 0.078807 -0.059541 -0.090700 0.058770 0.125737 0.075230 0.145504 -0.251126 0.390112 0.176974 0.074841 0.397397 0.030717 -0.064513 -0.068987 -0.044134 0.099865 0.103857 -0.039459 0.074954 0.238713 -0.411222 0.124586 0.364855 -0.043783 -0.182958 0.050973 -0.015658 0.140130 -0.124168 -0.015254 -0.102877 -0.138110 0.093094 0.395167 -0.187494 -0.147005 -0.253684 0.007220 -0.185420 -0.019009 0.033749 0.128495 0.002765 -0.405864 
显 -0.677785 0.028311 0.208132 0.046867 0.074379 0.158430 -0.208498 -0.268209 0.328452 -0.406173 0.568309 0.410573 0.131717 -0.343454 0.077350 0.166537 0.599943 -0.098152 -0.092782 -0.209719 -0.161928 -0.089290 -0.429126 -0.426513 0.051239 -0.099901 -0.086886 0.152764 -0.160937 0.546962 -0.295036 0.235160 0.194824 0.271851 -0.400042 -0.123383 -0.106195 0.320374 0.234084 0.175081 -0.103128 0.167397 0.026702 -0.385057 0.162878 0.033206 0.006339 -0.037704 0.206445 -0.613985 
后 -0.006692 0.148722 -0.104122 0.153429 0.070883 -0.098046 0.231910 -0.135232 0.099074 -0.033773 0.005110 0.246588 -0.088514 0.022502 0.153525 0.027108 0.000948 -0.105944 0.209703 -0.034243 -0.129660 0.065361 0.436291 -0.109798 -0.019492 0.391637 -0.290673 0.098361 0.313125 0.034274 -0.008547 -0.137834 -0.271900 -0.012039 -0.141723 -0.029325 -0.038237 -0.081555 -0.219059 0.260789 -0.099518 -0.053258 -0.257272 -0.146683 -0.253355 0.076190 0.260785 -0.117613 0.093927 -0.630802 
舒适 -0.281452 0.057202 0.072109 0.032461 -0.138912 -0.059791 0.041744 0.145455 -0.210869 -0.118571 0.339815 0.019013 -0.409437 -0.078402 0.470296 0.383887 0.151702 -0.196147 0.228522 -0.118554 -0.038192 0.051897 -0.156274 0.063715 0.160575 -0.027364 0.185784 -0.078218 0.099788 0.052862 0.082402 -0.042564 0.457284 0.033741 0.128498 0.135909 -0.084120 -0.068919 -0.087951 0.666620 -0.267004 0.027634 -0.139536 0.230379 -0.093831 -0.308770 -0.110357 -0.437003 0.287861 -0.393516 
手感 -0.007989 -0.038224 -0.131592 0.013549 -0.098456 0.093389 0.059479 -0.101609 -0.039195 -0.062618 0.201659 0.390846 -0.199869 -0.065743 0.222359 -0.020856 0.099517 -0.256032 0.082045 -0.053349 0.129097 -0.157738 -0.089680 -0.014087 0.069797 0.146673 -0.014092 0.059584 0.104616 -0.011523 -0.180845 -0.009146 0.332563 0.104893 -0.064015 -0.002660 -0.221935 -0.231956 0.095595 0.349989 -0.174887 0.119984 -0.050646 0.086408 -0.048999 -0.080779 0.039081 -0.240048 0.308041 -0.422036 
一个 -0.133942 0.213724 0.245238 0.045948 -0.228076 0.070593 0.084179 -0.163396 0.149958 0.046599 0.151443 0.391031 -0.140956 0.339188 -0.436839 0.126147 0.034071 0.008451 0.126884 -0.175348 -0.000147 -0.158074 0.232397 -0.157317 -0.256141 -0.222755 -0.213206 0.059210 0.153834 -0.311201 0.120298 -0.082597 -0.074886 0.336521 0.028744 0.293313 -0.166276 -0.216664 0.344953 0.019184 -0.298512 0.163018 -0.033877 0.194626 0.324221 0.102618 0.381284 0.044696 -0.096720 -0.402176 
谢谢 0.199259 -0.129808 -0.198708 0.116874 0.032284 -0.002994 0.030439 -0.000417 0.265815 -0.021672 0.038400 0.222360 -0.187411 0.170031 0.180375 0.040679 0.127857 -0.141178 -0.006244 -0.043714 -0.221867 0.262264 -0.172012 -0.229287 0.059577 0.062123 -0.294087 -0.144988 0.224260 0.191964 0.072553 0.186315 -0.190370 -0.128594 0.411860 0.469753 0.042179 -0.278441 0.157203 -0.059523 -0.338315 0.391970 -0.582683 0.322306 0.218361 0.000167 0.099367 -0.136812 0.381482 -0.292276 
想象 -0.046380 0.269730 0.109044 0.263768 0.055536 -0.169515 -0.004325 -0.421449 0.373572 -0.178391 0.309252 -0.132679 0.461566 0.484776 0.231160 -0.110807 0.215196 -0.268981 -0.492508 0.091884 -0.166989 -0.076040 0.258387 -0.218592 0.081295 0.159654 0.014861 -0.085329 -0.374242 0.221107 -0.144787 0.087759 -0.161366 -0.295683 0.248308 -0.102516 -0.818770 -0.619290 0.524202 0.196367 -0.095075 -0.178345 0.082731 0.217292 0.237551 -0.087631 0.205498 -0.278670 0.186918 -0.395399 
白色 0.136716 0.173267 0.520267 0.048189 -0.229638 0.016990 -0.180766 -0.201168 -0.140452 -0.405084 0.178063 -0.010012 -0.207108 0.136793 -0.064813 0.023630 0.198561 -0.115697 0.206197 0.009347 0.124511 0.108724 0.248148 -0.180699 0.044274 0.215851 -0.107779 0.017006 0.027330 0.349223 -0.000614 0.188696 -0.022538 0.288162 0.159485 0.194574 0.138899 -0.041168 0.234737 0.189269 -0.116245 -0.105947 0.053508 -0.103731 -0.037502 0.415083 0.277894 -0.105369 0.053773 -0.479895 
值 0.018737 0.172312 0.633412 -0.227595 -0.020948 -0.246539 0.077690 -0.237026 -0.085321 0.084649 0.129720 0.293931 -0.126971 0.115642 0.101127 0.296484 -0.391362 -0.049677 -0.047988 0.437170 0.106956 -0.186420 -0.194340 0.226625 0.062515 0.141214 -0.233612 0.109627 0.185001 -0.099309 -0.168779 0.101485 0.100451 0.002644 0.133107 0.001094 0.187806 -0.297928 0.191412 0.135708 0.152539 0.305184 0.040115 0.421579 -0.111442 0.186861 0.185716 -0.007144 0.337676 -0.308771 
棉的 0.247399 0.351500 -0.181439 0.333731 -0.005829 -0.164892 0.268184 -0.161033 -0.249523 -0.074639 0.067081 0.263553 0.262760 -0.129071 0.037972 0.008941 -0.168194 -0.151195 0.135025 0.150131 -0.322942 0.151938 -0.391162 -0.032824 0.264085 0.171591 -0.522291 -0.068567 -0.005306 0.148942 0.117983 -0.146222 -0.006658 0.127631 0.119939 0.097393 -0.228942 0.109032 0.025262 0.494752 0.055570 -0.058705 0.092402 0.184326 -0.002030 -0.126405 0.076874 -0.131805 0.302943 -0.333365 
搭 -0.020612 0.059111 0.388075 0.082113 0.009105 0.072018 -0.097639 -0.132447 -0.186993 0.093059 0.392350 0.040555 -0.090814 0.715435 0.022243 0.187392 0.192573 -0.208098 0.137993 0.256365 0.278417 0.095821 -0.225217 -0.173977 -0.040261 0.079764 0.248962 0.493810 -0.099963 0.277642 0.407969 0.097398 -0.039939 0.556945 -0.331511 0.241769 0.006714 0.021392 -0.001645 0.427087 -0.106613 0.323912 -0.078741 -0.302525 0.172745 0.152317 -0.018432 -0.130405 0.036225 -0.548987 
号 -0.289381 -0.028488 0.177233 -0.203627 -0.156713 -0.357321 0.213847 -0.018993 -0.029161 -0.085896 -0.077458 0.232800 -0.091333 0.036756 -0.219256 0.423064 0.009858 -0.129630 0.285904 -0.087039 -0.346238 0.287418 0.425306 -0.038055 -0.150489 0.018992 -0.365353 0.330572 -0.076450 -0.085614 0.042129 0.186783 -0.322211 0.160819 0.107863 0.728943 -0.396625 0.222240 0.139875 0.185727 0.044242 0.032180 -0.267080 -0.084113 -0.038130 0.127344 0.204014 0.194950 -0.357197 -0.315308 
宽松 -0.349578 0.068283 0.315792 -0.019186 -0.231436 0.039250 -0.123331 -0.010952 -0.094188 -0.274197 0.212483 0.411107 0.124576 0.011976 -0.008742 0.085782 -0.114702 -0.111799 0.122406 -0.152583 -0.102503 0.410790 0.207944 -0.118168 -0.076983 -0.030723 -0.025839 0.292574 -0.181532 -0.165002 0.134383 0.051061 0.081635 0.126979 0.144859 0.108444 -0.214093 0.110963 0.288314 0.287751 0.069567 -0.029261 -0.150526 -0.252322 -0.076674 -0.002043 0.326716 -0.041226 -0.283331 -0.549012 
有点 -0.370866 0.201805 0.217249 -0.024606 -0.361129 0.042279 -0.011425 -0.269910 -0.166842 -0.259081 0.091039 0.135804 -0.149733 0.144066 0.316364 0.435906 0.133724 -0.070766 0.113475 0.007572 0.137306 0.051260 0.551444 -0.160341 -0.140291 0.004670 -0.239175 0.062918 -0.201140 -0.063561 0.031235 -0.107716 0.213603 -0.088725 -0.013258 -0.119664 0.023364 -0.113733 0.189599 -0.020686 0.174111 0.009393 0.051183 -0.206905 0.065875 0.013827 0.203248 -0.114504 0.209731 -0.556283 
质 -0.393864 0.208150 0.024943 0.332842 -0.312208 0.029138 0.091201 0.230981 0.114779 -0.111863 -0.257890 0.470271 -0.232788 -0.248210 -0.405188 0.344903 0.193087 -0.049133 0.153902 0.464567 -0.419467 -0.288635 -0.359614 -0.014192 0.267318 -0.292642 -0.308551 -0.297172 0.094331 -0.090037 0.147990 -0.071120 0.180971 0.085254 -0.247700 -0.027945 -0.562880 -0.167017 0.315706 0.561562 -0.352206 0.086752 0.011511 0.427262 -0.039633 -0.585063 -0.251585 -0.279451 0.543855 -0.178192 
店 0.539033 -0.061065 0.174489 -0.006174 -0.124484 -0.548159 0.172668 -0.374932 0.476905 -0.245889 0.475795 0.283028 -0.077355 -0.004384 0.274209 0.154985 0.388098 0.308243 0.065797 0.147668 0.094218 -0.050864 0.231705 -0.387886 -0.004348 -0.257651 -0.112055 0.151745 -0.476476 -0.191524 -0.286956 0.050021 -0.145323 0.244320 0.520904 0.307958 0.042899 -0.810921 0.113464 -0.010521 0.181945 0.993445 -0.057053 0.431131 -0.282327 -0.211364 0.224290 -0.236477 0.109411 0.087571 
描述 0.345108 0.151919 -0.376915 -0.114096 0.123473 0.061964 -0.047926 0.018394 -0.045223 -0.336382 0.213321 -0.012504 0.181157 0.528705 0.331546 0.179757 -0.329538 -0.074474 -0.036887 -0.113848 0.000572 0.236643 0.148772 -0.019070 0.058789 -0.050935 -0.404950 -0.330852 0.153084 0.264350 0.248101 0.133727 0.255674 -0.093128 -0.287636 0.340797 -0.356770 -0.262332 0.182249 0.457583 -0.420378 0.562200 -0.306317 -0.136082 0.558667 -0.113024 -0.091555 -0.085100 0.218346 -0.067768 
已经 -0.084610 0.352552 0.046371 -0.038705 0.066335 -0.081651 0.237819 0.014915 0.125393 -0.010881 0.165288 -0.419642 0.067197 -0.417304 0.191109 0.225764 0.327892 0.041498 0.021966 0.187121 -0.299420 -0.153803 0.303970 -0.187787 -0.097297 0.313059 -0.311659 0.176168 0.230702 -0.173902 0.045588 0.009532 -0.171059 0.250126 -0.037881 0.102952 0.309053 -0.174413 0.066164 0.016724 -0.243541 0.122464 -0.084424 0.100727 0.002300 0.206763 0.420066 -0.185696 0.102273 -0.265287 
真心 0.004240 -0.016086 0.114581 0.003421 0.183570 -0.094826 0.039888 -0.125948 0.046823 0.029503 0.107559 0.204238 -0.038193 0.128431 -0.029231 0.227852 0.258504 -0.012779 0.137023 0.031336 0.058520 0.024189 0.000024 0.062315 -0.064906 -0.085309 -0.187489 0.157834 0.098099 -0.064685 -0.140891 0.027063 0.084103 0.061903 0.137815 0.074154 -0.063237 -0.224528 0.143789 0.099870 -0.152493 0.389333 0.024559 0.296626 -0.071964 -0.017742 0.417948 -0.232629 0.220015 -0.264600 
价钱 0.072345 0.347281 0.166946 -0.127379 0.086777 0.021294 -0.137904 -0.191877 -0.336930 0.010539 0.205761 0.300818 -0.019326 0.107690 0.115022 0.170752 -0.401000 0.028165 -0.009457 0.299161 0.157121 -0.083737 -0.050325 0.159329 -0.219304 0.068875 -0.350802 0.100654 0.230001 -0.017186 -0.172809 -0.004496 0.030501 0.108300 0.077415 0.211211 -0.071273 -0.088449 0.036502 0.052739 0.405641 0.294791 0.097683 0.207852 -0.179849 0.092680 0.046188 -0.214233 0.490918 -0.424225 
款 -0.067790 0.263523 0.389581 0.008812 -0.047074 -0.033803 -0.068310 -0.043859 0.018152 -0.066090 0.245045 0.096876 -0.275787 0.119001 0.058635 0.181099 0.075764 -0.088794 0.102506 0.044389 -0.051000 0.135394 -0.339067 -0.136384 -0.068298 0.107137 0.063044 0.212945 0.033325 0.138159 0.048999 0.029124 -0.046045 0.098220 -0.072947 0.173091 -0.036918 -0.002424 0.101545 0.613313 -0.171457 0.214315 0.055317 -0.266047 -0.010962 0.084296 0.082496 -0.209234 -0.004903 -0.416000 
高 -0.572346 0.057473 0.173296 0.321329 -0.006339 0.150626 0.542641 0.009974 -0.385055 0.050572 0.265663 0.235462 -0.259586 0.377487 0.071513 0.129510 -0.083393 -0.116312 0.372973 0.020382 -0.521119 0.050362 -0.264746 0.113297 0.004357 0.105708 -0.066222 0.096240 -0.185462 0.062056 -0.184125 -0.166280 -0.184092 0.022549 0.065327 0.557694 -0.024607 -0.382480 -0.223895 0.198811 0.062060 0.254010 0.114394 -0.304052 -0.057069 0.416038 -0.112864 -0.208330 0.053450 -0.322293 
中 -0.214534 0.001470 0.185712 0.205433 -0.048039 -0.311042 0.127795 -0.485296 0.286081 0.008985 0.072991 0.019301 0.480820 0.384306 -0.017739 -0.127333 0.189616 -0.176618 -0.517858 0.096493 -0.194021 -0.106325 0.166959 0.036659 0.033280 0.306092 0.030288 -0.030611 -0.202504 0.204966 0.139297 -0.009865 -0.161715 -0.281029 0.258864 -0.159309 -0.646011 -0.629823 0.509090 0.137167 -0.209722 0.060589 0.006039 -0.000221 0.128759 0.136038 0.135952 -0.097310 0.332028 -0.495104 
美美 0.309267 0.157560 0.053213 -0.301177 0.147914 0.316022 0.233528 0.035222 0.627561 -0.032301 0.264221 0.208034 -0.366978 0.425502 -0.567621 0.297581 0.084123 -0.149754 -0.237299 0.025025 -0.470710 0.100567 -0.094103 -0.145095 0.188405 -0.059095 -0.045456 0.373423 -0.146906 -0.116074 0.117105 0.711535 0.343317 0.236549 -0.101572 0.193690 0.242341 -0.197946 0.234738 0.058311 -0.570123 -0.060169 0.104984 -0.056953 0.199060 -0.217301 0.456252 0.254166 0.242031 -0.639547 
适合 -0.018509 -0.029998 0.239372 0.126022 -0.142077 0.096811 0.230990 -0.284831 0.319866 0.040950 0.401598 0.164570 -0.136038 0.143971 -0.295902 0.514237 0.243449 -0.148295 0.006599 0.042506 0.202856 0.104572 -0.159082 0.039030 -0.035111 0.285730 0.187256 0.099987 -0.148935 -0.126541 0.119690 0.042135 0.450705 0.230227 -0.213229 0.199979 0.079480 0.299810 0.153000 0.293578 -0.073338 0.224238 -0.031802 -0.274172 -0.055904 -0.168578 0.041175 -0.014571 -0.005705 -0.560639 
雪纺 -0.323284 -0.200416 -0.031141 -0.075947 -0.140534 0.106494 -0.073498 0.041554 0.116691 -0.242228 0.217169 0.311474 0.086086 0.199429 0.089465 0.240245 0.063077 -0.340878 0.211068 -0.318653 0.361034 -0.093682 0.120025 -0.228566 -0.055295 0.425462 0.443875 0.332737 -0.050264 -0.187122 -0.027246 0.190774 0.414084 0.086555 0.020782 -0.060117 -0.052849 -0.307292 0.294140 0.267223 0.063617 0.126842 -0.070278 0.025853 -0.175715 -0.047110 0.246397 -0.061594 0.220899 -0.558282 
线头 -0.094422 -0.265101 -0.142489 -0.093170 -0.408111 0.129091 0.197948 -0.081258 -0.223112 -0.052734 0.312555 0.234034 -0.414014 -0.081497 0.516343 0.044237 -0.042807 -0.030362 -0.130038 0.304566 0.061026 -0.332775 0.191280 -0.267351 -0.381750 0.031573 -0.035638 0.274499 -0.038783 -0.296466 -0.011172 -0.302353 0.326997 0.020220 0.312535 -0.069175 -0.213395 -0.373485 -0.157943 0.375412 -0.102495 -0.013675 0.055419 0.103432 0.018062 0.182148 -0.024910 0.197097 0.157580 -0.565490 
帮 -0.080086 0.169736 0.032632 -0.248413 -0.087117 -0.254087 0.159415 0.110411 0.008977 0.152276 -0.044453 -0.219280 0.100354 -0.645806 -0.019262 0.355899 0.355056 0.279306 -0.134876 -0.039970 -0.449869 -0.121635 0.374933 -0.328152 0.096814 0.432599 -0.309330 0.419183 0.474548 0.380607 -0.237020 0.239544 -0.411022 0.221884 0.104823 0.540860 0.033690 -0.090459 0.216338 0.137271 -0.205128 0.101931 0.027937 -0.112438 -0.054814 -0.078887 0.165860 -0.293131 0.035030 -0.001096 
货 0.088963 0.297478 -0.209500 -0.134799 0.115355 -0.159202 -0.073690 -0.211494 -0.166386 -0.017188 0.204230 0.269967 0.024816 -0.029885 0.269504 0.263047 -0.027632 0.073247 0.140070 -0.055190 0.073005 -0.243069 0.336664 0.065473 -0.126984 0.336947 -0.413003 -0.137233 0.258256 0.104685 0.190831 -0.226119 -0.430952 0.196548 -0.121127 0.211419 -0.274258 -0.023755 0.246349 -0.088913 -0.162668 -0.111364 -0.170132 0.121533 -0.215213 0.059217 -0.025454 -0.022028 0.298136 -0.511823 
但 -0.139363 0.011919 0.089002 -0.074805 -0.255753 -0.018861 0.077054 0.046290 -0.157573 -0.249561 -0.058030 0.033523 -0.014365 -0.090064 0.187365 0.306461 0.110263 -0.303693 0.102649 -0.005020 0.088629 0.006334 0.428339 -0.202193 -0.137460 0.265081 -0.134503 0.197714 0.102299 -0.056079 0.225112 -0.016187 -0.070281 -0.132352 0.111652 -0.047973 -0.016894 -0.421103 0.201118 0.198275 0.034931 0.150152 -0.172932 0.024295 0.005889 0.026542 0.174324 0.093918 0.135484 -0.408702 
修身 -0.533680 0.099016 0.066027 0.285632 -0.178930 -0.212276 -0.193712 -0.125804 0.014381 -0.086007 0.178997 0.200260 0.093002 -0.204191 0.233218 0.221406 0.241554 -0.197639 0.142612 -0.018446 -0.231627 0.318366 -0.185978 -0.079520 -0.084249 0.055703 0.047351 0.100319 -0.003014 0.049287 -0.164609 0.093817 0.223673 0.072496 -0.127391 -0.023192 -0.241201 0.160341 0.095895 0.235860 -0.173914 0.163772 -0.062507 -0.047222 0.046240 0.050624 -0.047124 -0.245642 -0.025947 -0.348869 
超级 -0.013686 0.112206 0.017622 -0.207751 -0.213967 0.164043 0.064090 -0.070501 0.150880 0.109347 0.044656 0.184346 -0.158755 0.049343 -0.008287 0.202140 0.189166 0.120617 0.133615 0.158089 0.076527 0.050290 -0.405679 -0.106864 -0.160988 0.019217 -0.181580 0.010999 0.062155 0.179207 0.142197 0.237189 0.006203 0.119158 0.011569 0.243911 0.131688 -0.083638 -0.002316 -0.114371 -0.377856 0.230125 -0.248616 0.151849 -0.026994 0.349083 0.536662 -0.127287 0.603237 -0.220858 
物 -0.350446 0.171581 0.701429 -0.466530 0.262127 -0.287547 0.214713 -0.016820 0.051199 0.441518 0.173278 0.289669 -0.609080 0.012303 0.545883 0.154171 -0.314514 0.330741 -0.386074 0.684560 -0.163972 0.083017 -0.356054 0.408572 -0.219049 0.139049 -0.156663 -0.050540 -0.020938 -0.297029 -0.098496 0.195530 0.051191 0.232512 0.067536 0.008883 -0.129308 -0.579701 -0.000178 0.253364 -0.242153 0.436345 0.201032 0.146509 0.402947 -0.041619 0.040940 -0.294323 0.511047 -0.119671 
缩水 -0.161716 0.421395 -0.074104 0.428011 -0.056737 -0.399927 0.254259 -0.142650 -0.043704 -0.176871 0.182709 0.155040 -0.275934 -0.048394 0.213256 -0.181094 0.117531 -0.119927 0.327555 0.189500 -0.287265 0.443022 0.442969 -0.044000 -0.143085 0.495181 -0.278690 -0.094163 0.621663 -0.325094 0.061847 -0.461977 0.031971 -0.339994 -0.119909 -0.235076 -0.019740 -0.136344 -0.620613 0.672726 0.083552 -0.101414 -0.141988 -0.208694 -0.219831 -0.167418 0.441305 -0.208156 -0.289693 -0.413075 
吊带 0.003289 -0.221015 0.265996 0.063661 -0.233434 0.294790 -0.051239 0.048980 0.301816 0.030828 0.036762 0.185711 -0.170926 0.578177 -0.167671 -0.143784 0.092859 -0.314414 0.164655 -0.213491 0.299863 -0.150038 -0.018820 -0.244723 -0.263527 0.193492 -0.039950 0.053531 -0.143501 -0.126182 0.088892 0.309392 0.237514 0.160760 0.071408 0.199227 0.026324 -0.282057 0.338674 -0.192663 -0.121330 0.184488 -0.461514 0.530426 0.221601 0.501527 0.319235 0.015652 0.425100 -0.593870 
衣衣 -0.028880 0.121019 -0.006148 -0.088262 0.045448 -0.029296 0.053013 -0.150841 0.138725 0.142452 0.088646 0.269395 0.077686 0.038494 0.290746 0.219319 0.135291 -0.139317 -0.054092 0.057470 -0.167047 0.111850 -0.268384 -0.024009 0.122733 0.055743 -0.352252 0.165983 0.098438 0.145603 0.055649 0.168776 0.044650 -0.025386 0.040054 -0.022445 -0.130610 -0.001177 -0.100629 0.062088 -0.152955 0.150443 -0.241888 0.017866 -0.060873 0.082128 0.280720 -0.237379 0.266659 -0.351730 
人 -0.100446 0.012731 0.071242 -0.050881 -0.074248 -0.014310 0.148874 -0.190381 0.325364 -0.237990 0.122093 0.268815 -0.124266 -0.122180 -0.095874 0.396541 0.188949 0.024308 -0.071004 -0.162252 0.095349 0.251703 0.010694 -0.344721 -0.282640 0.149709 -0.198208 0.228141 0.183952 0.091883 -0.075892 0.010302 -0.145539 -0.110584 -0.149708 0.019799 0.037298 0.076688 0.370037 -0.166105 -0.044972 0.453146 -0.120632 -0.170432 -0.135546 0.199557 0.077361 -0.097368 0.156056 -0.306748 
觉得 -0.062295 0.120228 0.202091 0.188851 0.011521 -0.103801 0.013122 0.143885 -0.116813 -0.127788 -0.046883 0.104806 -0.096539 0.120339 0.047834 0.419345 0.142480 -0.014479 0.019586 -0.273556 -0.069366 0.017105 0.022942 -0.222296 -0.028860 0.325604 -0.101413 0.349596 -0.139188 0.107896 -0.048965 -0.119531 -0.073511 0.046094 0.009305 0.046668 0.245246 -0.096345 0.282139 0.242797 0.100761 0.223811 0.015735 -0.056475 -0.075502 0.289849 0.335032 -0.066684 0.129534 -0.474643 
搭配 -0.071239 0.186885 0.388510 0.061609 -0.231386 0.171730 0.134300 -0.150470 0.138850 0.020698 0.493584 0.122154 -0.088969 0.196213 -0.132728 0.113468 0.579319 -0.310552 -0.198195 -0.026605 0.210446 0.364543 -0.386527 -0.177811 -0.215484 -0.141667 0.000860 0.593737 -0.041079 0.136029 0.273377 0.090369 0.096576 0.714937 -0.353835 -0.022644 0.010375 -0.108629 0.155268 0.306868 -0.320960 -0.059040 0.026532 -0.135575 0.149499 0.002843 -0.140091 -0.319595 0.117865 -0.457088 
试 0.159638 0.417421 -0.243502 0.098021 -0.082532 0.058872 -0.118764 -0.225631 -0.055245 0.068453 0.152505 0.341055 -0.475121 0.369590 0.238428 -0.248650 0.341126 -0.089689 -0.000704 -0.305884 -0.085933 -0.052957 0.178233 0.025682 0.125649 0.177891 -0.476971 0.052580 -0.021791 -0.070591 -0.083119 0.008249 -0.191721 0.107451 -0.204834 -0.078378 0.056857 -0.081216 0.096792 0.296894 -0.347730 -0.214795 -0.458952 -0.109905 -0.231117 0.036065 0.344475 0.115683 0.098772 -0.390030 
性价比 -0.394404 0.276117 0.059507 0.332464 0.174363 0.165566 0.289228 0.360654 -0.292077 0.062034 0.216331 0.190844 -0.611296 0.392445 0.081723 0.112303 -0.106068 -0.295029 0.350042 0.040027 -0.432419 0.051478 -0.355418 -0.111586 0.059430 -0.063046 -0.220997 0.222118 -0.030871 0.107176 -0.204897 -0.083886 0.068513 -0.015561 -0.040235 0.500506 0.185677 -0.273053 -0.383955 0.217016 0.066479 0.310842 0.271695 -0.215538 -0.040360 0.356611 -0.257310 -0.134492 0.072971 -0.602191 
东西 0.102616 0.177762 0.002004 -0.306605 0.241917 -0.454028 0.274440 0.094193 -0.193224 0.039052 0.018805 0.168453 -0.149309 0.015348 -0.024083 0.285026 0.106048 -0.226240 0.001134 0.186186 -0.128552 0.159504 0.009819 -0.000676 -0.258225 0.134765 -0.186099 0.251800 0.190977 -0.067960 -0.283552 -0.407713 0.067254 -0.003802 -0.072914 0.186506 0.244255 -0.743244 0.097776 -0.040821 -0.230510 0.021253 -0.106309 0.075636 0.411226 0.578601 0.252701 -0.222725 0.298140 -0.209730 
瘦 -0.792127 0.043445 0.193019 0.057543 0.147321 0.270759 -0.069762 -0.219911 0.293148 -0.365452 0.305431 0.477407 0.220449 -0.325056 0.010385 0.195084 0.482210 -0.053791 0.125932 -0.270289 -0.430393 0.112921 -0.295379 -0.441178 -0.153923 0.063697 -0.058238 0.090629 -0.253594 0.387168 0.000636 0.083631 0.051356 0.140165 -0.323496 -0.170404 0.021295 0.124957 0.168119 0.016386 0.050655 0.280976 0.021746 -0.340660 0.150363 -0.196733 0.187350 0.126374 0.204564 -0.582941 
那种 -0.244682 0.110970 0.176238 0.110609 -0.047408 0.044263 -0.300895 -0.105372 0.033884 -0.184318 0.316963 0.350010 0.190076 0.088245 0.040181 0.496346 0.007921 -0.303730 0.429956 -0.037338 0.200024 0.082262 0.075644 -0.321282 0.016907 0.266029 0.033960 0.026347 -0.057294 -0.135212 -0.389818 0.224109 0.284132 -0.134594 -0.074381 -0.219662 -0.092914 -0.226516 0.429213 0.330052 -0.002908 0.053892 0.136907 -0.192408 -0.156865 0.074380 0.262480 -0.197749 -0.042543 -0.308355 
皱 -0.173753 0.112717 0.051143 0.290177 0.041203 0.409256 -0.032736 -0.312066 -0.413922 0.019931 -0.128390 -0.020879 0.115025 -0.076702 0.382968 0.349749 -0.152792 -0.280399 0.280191 0.350701 0.333668 0.321023 0.106240 -0.343322 -0.100010 0.283202 -0.125368 0.487785 0.172780 0.125715 -0.052666 -0.076982 -0.170048 -0.064776 -0.347093 -0.327292 0.204046 -0.566634 0.254753 0.229681 0.215363 -0.196901 -0.241764 -0.188205 -0.110319 -0.262168 0.532939 0.093371 0.099095 -0.344513 
码数 -0.236501 0.166673 -0.025520 0.004650 -0.188368 -0.322027 -0.014568 -0.148693 -0.106099 -0.151993 -0.150628 0.460218 -0.009474 0.022347 0.129949 0.106366 0.170142 0.017008 -0.014040 -0.016376 -0.029921 0.246383 0.199296 0.170703 0.144384 0.025709 -0.210167 0.220796 -0.080244 0.216493 0.035042 -0.089996 -0.190439 0.048307 0.268356 0.214525 -0.102507 0.331993 0.019839 0.280138 0.008887 0.193967 -0.485653 0.138337 -0.043291 0.086061 0.225319 -0.119831 0.126878 -0.347643 
斤 -0.766687 -0.157061 0.322565 0.155748 -0.446368 0.403985 0.713589 -0.417026 0.115547 -0.330543 0.291418 0.259262 0.116848 -0.012952 -0.128372 -0.263033 -0.141470 0.096685 0.343925 -0.028562 -0.552921 0.822060 -0.002978 0.058215 -0.242585 -0.052286 -0.323379 -0.345507 -0.324637 -0.256625 -0.107203 0.075168 -0.125207 0.449881 -0.015124 0.424308 -0.195138 -0.308758 0.228760 0.200287 0.618373 0.034009 -0.497969 -0.155969 -0.440245 0.231677 0.409283 -0.061155 -0.074613 -0.229309 
配 0.175754 0.168171 0.534031 0.232922 -0.278936 0.230751 0.075548 -0.265489 0.019252 -0.255061 0.409730 -0.081856 -0.033715 0.693985 -0.330620 0.064843 0.680257 -0.181686 -0.057891 -0.007920 0.200957 0.153988 -0.156320 -0.041181 -0.214934 -0.150049 -0.122341 0.411442 0.257067 0.066665 0.633702 0.204340 -0.106303 0.528864 -0.183960 0.066591 -0.012172 0.056244 0.189343 0.186636 -0.344681 0.297545 -0.022021 -0.271731 0.244064 -0.119655 0.126777 -0.178133 -0.063441 -0.527853 
包装 0.232971 0.142067 -0.465530 0.118254 0.036509 0.193104 0.107263 -0.074793 -0.101068 0.111020 0.356660 0.301164 -0.450398 0.090985 0.386897 0.205785 -0.332964 0.037911 0.081974 0.022359 -0.160247 -0.311385 -0.005813 -0.147642 -0.416114 -0.091450 0.218319 -0.104070 0.129183 0.033542 0.321556 -0.163173 0.177716 -0.060877 0.126209 -0.243456 -0.235784 -0.450849 0.100968 0.140859 -0.429107 0.026648 -0.403896 0.094099 -0.006834 0.169359 0.029721 -0.225613 0.284860 -0.611231 
最 -0.215174 0.125277 0.235944 0.207443 -0.157510 -0.172192 0.108066 0.031691 0.033007 -0.025141 0.031430 0.238278 -0.024504 0.072381 -0.299419 0.040010 -0.008150 -0.389809 0.294457 -0.157461 -0.226270 0.173616 -0.051120 -0.211789 -0.151400 0.071183 -0.166811 0.086074 -0.145493 0.062703 -0.180713 0.149016 -0.181167 0.099170 -0.056530 -0.002078 -0.111402 -0.391954 0.373096 0.299880 -0.243804 0.536639 -0.003426 -0.307290 0.237841 0.366748 0.030398 -0.053703 0.094384 -0.164703 
身上 -0.249456 0.046057 -0.024084 0.166034 -0.242074 -0.055638 -0.161541 0.013058 0.104566 -0.148003 0.135824 0.454544 0.016870 0.187719 0.078069 0.308308 0.135724 -0.182885 0.161503 -0.083830 -0.119835 0.147679 -0.044083 -0.126816 0.285191 0.485301 -0.084502 0.472214 0.293979 -0.096052 -0.047189 0.229616 0.237537 -0.028396 0.007211 -0.169830 -0.189378 -0.099988 0.397605 0.297775 -0.224651 -0.061545 0.208960 0.266897 0.314230 0.014914 0.332164 0.152302 0.231665 -0.012483 
赶紧 0.063887 -0.101699 -0.003161 -0.359392 0.539232 -0.222801 0.138122 -0.258501 -0.097650 0.258282 0.316295 0.244469 0.144086 0.302214 0.053615 0.071040 0.199454 0.394947 0.000204 0.288718 0.137321 0.432255 -0.361815 0.021680 0.058393 -0.236913 -0.747180 0.356388 -0.175385 0.339879 -0.283358 0.881306 0.183043 0.011770 -0.314936 -0.031700 0.078647 -0.096806 0.422995 0.271395 -0.042075 0.257752 -0.076015 0.404589 0.037998 0.595428 0.451784 -0.541827 -0.083821 -0.324291 
精细 -0.174103 0.147820 -0.158351 -0.016320 0.032990 -0.129978 0.121096 -0.178397 -0.166629 0.173945 0.619420 0.284776 -0.334758 -0.186449 0.541959 0.337008 0.023297 -0.253926 -0.014535 -0.262806 -0.050155 -0.011976 -0.236601 -0.148013 0.020997 -0.130568 0.124911 0.013369 0.222490 -0.237521 -0.075689 -0.144691 0.243192 0.284667 -0.086596 -0.030129 -0.165930 -0.012467 -0.328498 0.793816 -0.626011 -0.007298 -0.013469 0.296964 -0.093742 -0.241791 -0.021857 -0.198376 0.280964 -0.182584 
厚实 -0.372742 0.197310 -0.051349 0.297772 0.018109 -0.014189 -0.027812 -0.148375 0.003241 0.005878 0.538688 0.303665 -0.098749 0.053624 0.111117 0.078574 0.098679 -0.227067 -0.092183 -0.116889 0.018055 -0.024026 0.020178 -0.294996 -0.224482 0.094832 0.406302 0.299874 0.244507 -0.225303 -0.192115 -0.173135 0.423225 -0.008076 -0.135345 -0.048685 -0.265677 -0.311252 0.323049 0.532276 0.090532 -0.028587 0.098111 0.074596 -0.105289 -0.190770 0.160480 -0.433367 0.235210 -0.163034 
蛮 -0.172288 0.362014 -0.027846 0.177240 -0.116786 -0.043666 -0.146077 -0.071649 0.017976 -0.052154 0.252899 0.134988 -0.211895 0.316999 0.077352 0.187849 0.322998 -0.374193 0.112670 -0.021041 0.138532 0.111657 -0.092720 -0.165733 -0.050397 -0.005096 -0.264973 0.058106 0.074665 -0.158907 -0.164188 0.051091 0.105940 0.173010 0.134304 0.094737 -0.099556 0.004253 0.217140 0.153204 0.196745 -0.004997 -0.098277 -0.051724 -0.063425 -0.104341 0.122584 -0.077958 0.221200 -0.232068 
需要 0.054522 0.027386 0.026397 -0.199941 0.093122 0.008051 -0.232000 -0.071015 0.026118 0.367771 -0.120107 -0.234268 -0.328984 -0.149001 0.101639 0.334386 -0.046030 0.332034 -0.104022 0.236307 -0.271736 0.263031 0.176549 -0.165808 0.030643 0.069413 -0.275009 0.309530 0.213965 -0.050652 -0.092512 -0.035862 0.039936 0.062162 0.081174 0.253850 0.041992 -0.470169 0.315964 0.160125 -0.135340 0.479049 -0.221257 0.065604 0.281690 0.025265 0.214318 0.139583 0.157764 -0.228469 
评价 -0.126392 0.021392 0.175403 0.104599 0.477697 -0.302247 0.136045 0.058791 0.257268 -0.104719 0.008705 0.455647 0.280369 0.136544 0.177414 -0.042326 0.189332 0.068384 -0.023526 0.378850 0.055501 0.334151 0.427874 0.012216 0.385262 0.084627 0.035229 0.031236 0.360917 -0.018196 -0.227927 -0.307818 -0.286855 0.162678 -0.272280 0.349127 -0.110942 -0.196210 0.011285 0.193074 -0.459527 0.074185 0.237547 -0.084837 -0.381937 0.109608 0.842112 -0.060980 0.100021 -0.413891 
应该 -0.015839 0.061351 0.200016 0.150425 -0.383354 0.121837 0.069666 -0.121042 -0.273104 -0.169001 -0.041282 0.056874 0.076019 0.170262 -0.011497 0.213390 0.281094 -0.441589 0.312815 0.029405 0.102368 0.159985 0.229561 -0.068160 -0.125715 0.206557 0.174288 0.172795 0.132230 -0.190291 -0.053092 0.051270 0.150073 -0.022635 -0.094849 -0.073576 0.140324 -0.250547 0.147584 0.362099 0.179703 0.029318 -0.391914 -0.208391 -0.061945 0.048698 0.378532 0.065675 0.040843 -0.438241 
建议 -0.183187 -0.142881 0.123110 -0.034302 -0.113615 -0.348205 0.022456 -0.148665 -0.233939 -0.223008 0.013075 0.569642 -0.128788 0.122742 -0.107748 0.366839 0.170686 0.033406 0.291134 -0.053869 -0.418149 0.488396 0.337976 -0.150094 0.054961 -0.268739 -0.215678 0.397060 -0.107053 0.223287 -0.062475 0.112990 -0.004543 -0.117251 0.166323 0.385320 -0.069919 -0.069702 0.006547 0.374206 -0.036240 0.043416 -0.315595 -0.046678 0.218580 -0.041767 0.237308 -0.098410 -0.230433 -0.151823 
速度 0.008922 0.474616 -0.645135 -0.111671 -0.238164 0.299875 0.038417 0.263712 -0.019892 -0.039220 -0.114436 0.248806 0.232312 0.051801 0.227971 0.665614 0.255101 0.078541 0.090287 0.186590 0.164147 -0.109130 -0.028547 0.039041 -0.476577 0.178720 -0.368753 -0.441260 0.243863 0.148777 0.055267 0.382939 0.152982 0.329182 0.024866 0.369908 -0.288078 -0.252227 -0.008540 0.004087 -0.440493 0.132540 -0.486584 0.140416 0.172464 0.025391 -0.238919 -0.117091 0.050114 -0.213093 
偏 -0.598010 0.037533 0.121802 0.041379 -0.323105 0.007221 -0.142286 -0.129643 -0.108072 -0.450630 -0.095162 0.242275 0.240750 -0.113093 -0.026667 0.702944 -0.184175 -0.160886 -0.128676 0.137924 -0.135381 0.299035 0.250384 -0.231607 -0.013476 0.083420 -0.310049 0.101711 -0.266723 0.270322 0.062629 -0.060019 -0.013057 -0.089904 0.211425 0.022038 -0.040842 0.053491 0.192198 0.219041 0.296166 -0.133304 -0.129780 -0.430120 -0.003878 0.031643 0.320782 0.057857 0.059135 -0.497275 
放心 -0.008623 0.080204 0.050230 -0.378839 0.241446 0.026197 0.023155 -0.305110 -0.115020 -0.280204 -0.141583 0.153468 0.051322 0.054221 0.182098 0.203997 0.003268 0.369257 0.229971 0.309400 0.031125 0.309000 -0.259895 0.093644 0.198452 -0.099110 -0.418738 0.197395 -0.009824 0.199625 0.013045 0.337347 -0.221754 -0.082957 -0.157981 0.318590 -0.161832 -0.087021 0.061940 0.492229 -0.008748 0.483984 -0.149249 0.365974 -0.150667 0.016436 0.257171 -0.444224 -0.158446 -0.171664 
量好 -0.490607 0.244686 0.003619 0.595722 -0.326843 0.096006 0.265439 0.348069 0.043014 -0.225380 -0.318249 0.265013 -0.458929 -0.060143 -0.313247 0.074740 0.402850 0.165494 0.443240 0.507869 -0.665531 -0.478295 -0.203323 -0.061145 0.270128 -0.270079 -0.354903 -0.321619 0.154464 0.224592 0.169825 0.218995 -0.007850 -0.055971 -0.400405 0.185711 -0.632802 -0.244912 0.169503 0.374791 -0.080802 0.576397 -0.000064 0.580315 -0.010941 -0.532734 -0.430668 -0.315009 0.539034 -0.364953 
掉色 -0.029349 0.073936 -0.037832 0.426793 -0.118228 -0.304066 0.009167 -0.381827 -0.131489 -0.134787 -0.091545 -0.104808 -0.209702 -0.095524 0.423442 -0.064593 -0.007616 -0.050785 0.085707 0.336175 -0.208991 0.269231 0.539424 -0.378769 0.144992 0.203016 -0.089068 -0.048053 0.590201 0.077798 0.146245 -0.052616 0.309865 -0.095824 -0.237998 0.000991 0.311237 -0.207246 -0.234486 0.660571 0.135829 0.003873 0.108024 -0.015825 -0.105443 -0.176143 0.333133 -0.286915 -0.060693 -0.469376 
换 -0.340726 -0.011812 -0.011416 -0.184652 -0.013850 -0.384706 0.206041 0.038882 -0.088783 -0.444636 0.091920 0.220688 -0.412393 -0.513913 -0.243960 0.257048 0.262874 -0.012021 0.348603 -0.099678 -0.194041 -0.093780 0.360198 0.193273 -0.177844 0.246979 -0.496154 0.106835 -0.176713 0.387968 0.278939 -0.219921 -0.575080 0.045562 0.307275 0.383410 -0.325995 -0.090365 0.340046 -0.088791 0.073802 -0.197246 -0.485631 -0.106307 0.214521 0.021860 0.236651 0.335750 0.302768 -0.283453 
第一 0.135954 0.107699 0.020013 -0.163535 0.070560 -0.177330 0.045454 -0.186617 -0.076960 -0.103808 -0.074442 -0.237522 0.001030 -0.082549 -0.200532 0.188259 0.408130 -0.111809 0.198153 0.072108 -0.294115 -0.037738 0.444108 -0.222450 -0.137699 0.255797 -0.250701 0.068928 -0.073291 0.044231 -0.078371 -0.238074 -0.087872 0.069038 -0.236538 -0.124988 -0.003662 -0.216746 0.324156 -0.111267 -0.611212 0.654546 -0.038151 0.049278 -0.320944 0.358325 0.421613 -0.013609 0.145268 -0.152564 
总体 -0.373968 0.263084 -0.347503 -0.120504 -0.481148 0.396860 -0.047305 -0.042030 -0.354319 -0.325314 -0.024088 0.031802 0.211414 0.334437 0.162104 0.241325 -0.107446 -0.177168 -0.007395 0.440897 0.234734 0.031826 0.496786 -0.183542 -0.159003 0.138651 -0.428941 0.278259 0.090721 0.022531 -0.089219 0.096204 0.327336 -0.404202 0.082464 -0.063468 -0.195316 -0.195235 0.257372 0.069363 -0.061684 -0.058536 -0.085473 -0.145267 0.302713 0.010006 0.145275 0.245810 0.087315 -0.619960 
薄 -0.259918 0.215275 0.429786 0.285568 -0.621125 -0.143826 -0.158778 0.016752 -0.137886 -0.015516 0.245039 -0.099839 -0.085983 0.281554 -0.008129 0.364034 -0.009415 -0.187376 0.064341 0.102441 0.291411 -0.087554 0.241413 -0.271430 0.273059 0.263610 0.057773 0.052314 -0.263404 0.018180 -0.182693 -0.203120 0.068231 -0.088980 0.054719 0.242658 -0.167220 -0.140937 0.506276 0.132239 -0.001347 0.070980 -0.324546 -0.078543 -0.215965 -0.169711 -0.034583 0.138584 0.006480 -0.558656 
只 -0.024795 0.274954 0.230504 0.028880 -0.432785 -0.060712 -0.077703 -0.018681 -0.085284 -0.191880 -0.005310 0.042776 -0.040819 -0.075440 0.190170 0.623289 0.143318 -0.114284 0.127129 0.019289 0.009085 0.162662 0.274202 -0.033029 -0.244976 0.071365 -0.160704 0.025318 0.156557 -0.100993 0.183064 -0.217644 -0.183508 -0.032778 -0.128528 -0.027731 -0.084039 0.031495 0.421191 0.025233 0.076640 -0.047094 -0.052494 -0.095305 0.094601 0.024066 0.301006 0.034164 0.073190 -0.314739 
知道 -0.106725 0.043038 -0.001144 0.097130 -0.082151 -0.492761 0.260220 -0.168042 -0.004714 -0.077126 -0.076850 0.336469 -0.071796 -0.011149 0.214829 0.114130 0.244329 -0.201122 0.403043 -0.128442 0.201115 0.168760 0.526803 -0.191076 -0.341181 0.286750 -0.241592 0.046355 0.403523 -0.076747 -0.170796 -0.282289 0.039104 -0.153118 -0.462219 -0.265086 -0.028545 -0.532120 0.136603 -0.060296 -0.043621 -0.034251 0.226909 -0.097614 -0.007489 0.226855 0.498875 0.055155 -0.047509 -0.279507 
妈妈 0.205734 0.062163 -0.033809 -0.094897 -0.279204 -0.303088 -0.117227 0.421969 0.088975 -0.123420 0.052913 0.207131 -0.119126 -0.090091 0.296241 0.293856 0.462442 0.546652 -0.159784 -0.169894 -0.595931 0.229216 -0.285699 0.050772 0.071604 0.491493 -0.129657 0.563181 0.401222 0.076359 -0.018522 0.138871 0.161718 -0.053422 0.086121 0.112943 -0.324262 0.104238 0.291113 -0.361266 0.226781 0.207569 0.030315 -0.380028 -0.438806 -0.105621 0.200863 -0.350589 0.424545 -0.130596 
物有所值 -0.076057 0.297982 -0.157352 -0.169813 0.098559 -0.161838 -0.152170 -0.138570 -0.151714 0.123695 0.185362 0.029140 -0.003296 0.033147 0.015924 0.004989 -0.021013 -0.336397 -0.163149 0.220627 -0.189178 0.054105 -0.193635 -0.081129 0.278039 -0.021935 -0.157766 0.215004 0.121596 0.172609 0.011284 0.030896 0.250271 0.163020 -0.111032 0.316985 -0.062575 -0.471254 0.050020 0.169890 -0.043200 0.306677 -0.201895 0.327707 0.133673 -0.165284 0.326361 -0.085827 0.273198 -0.127638 
下单 0.085139 0.210932 -0.161197 -0.294336 0.449984 -0.128090 0.206755 0.002255 -0.086787 0.250120 0.050963 0.131405 -0.198703 0.147411 -0.002579 0.525228 0.145997 0.423229 0.043734 0.058313 -0.042464 0.195333 -0.058342 -0.143504 -0.151081 0.274753 -0.846732 0.016777 0.030796 0.048791 -0.159430 0.414784 -0.002637 0.224795 -0.032692 0.169042 -0.039755 0.020470 0.359544 0.021711 -0.234221 0.049272 -0.032702 0.344292 -0.097236 0.151851 0.334389 -0.198693 -0.241725 -0.334726 
哒 0.414663 0.166649 0.078769 -0.495250 -0.021023 0.265394 0.299836 -0.253457 0.534705 -0.050102 0.291156 0.023419 -0.235416 0.363976 -0.356852 0.251241 0.291345 -0.224685 -0.367742 0.053119 -0.490553 -0.136993 -0.154296 -0.256110 0.022894 -0.059471 0.133620 0.583625 -0.266252 -0.257680 0.062455 0.697828 0.276458 0.244367 -0.038874 0.379444 0.419148 -0.217235 0.047026 0.022370 -0.480543 -0.100886 0.148849 -0.023999 0.194210 -0.406848 0.202764 0.019302 0.407459 -0.799018 
现在 0.058305 0.276139 0.168241 0.075784 -0.009232 -0.188672 -0.022848 0.127539 0.432354 0.085586 0.250787 0.327374 -0.156910 0.025737 -0.403634 0.288825 -0.000554 -0.143589 -0.109936 0.092422 0.065304 0.211729 0.037876 0.078245 0.063596 0.138929 0.036610 0.127338 -0.040550 0.009400 -0.070790 -0.532346 0.040645 0.461592 -0.043713 0.080766 0.192517 -0.042968 0.104177 0.215950 -0.332019 0.023272 -0.108924 -0.306895 -0.398553 -0.107654 0.517934 0.077717 0.162005 -0.579603 
背心 0.009792 -0.106790 0.388956 0.192111 -0.509899 0.264780 -0.284177 0.213270 0.303387 -0.075878 0.048292 0.204238 -0.151530 0.324423 -0.186429 -0.251053 0.168150 -0.131246 0.226798 -0.252608 0.375319 0.055920 -0.020925 -0.177539 -0.096401 0.155249 -0.145643 -0.017961 -0.264141 0.128437 0.189835 0.259377 0.235583 0.163903 -0.097996 0.147293 0.013375 -0.207503 0.104267 -0.255439 -0.290537 0.225392 -0.471720 0.425078 0.480644 0.289569 0.332080 0.049083 0.432211 -0.836283 
继续 0.583505 0.312316 -0.111807 0.006874 0.274484 0.077738 0.268728 -0.190865 0.239997 -0.150397 0.291713 0.241854 -0.096651 -0.542772 -0.156026 0.108945 0.506272 0.099818 -0.333691 0.313466 -0.236974 -0.004790 -0.479210 -0.164199 0.382387 0.402141 -0.079891 -0.373599 0.449027 -0.308199 -0.217631 0.003625 -0.027825 0.619937 0.259794 0.229529 -0.193878 -0.333508 0.003116 0.053415 0.298711 0.724003 -0.163388 0.405723 0.515361 0.136126 0.327029 0.155449 0.837305 -0.240338 
差 0.060226 -0.123878 -0.097364 -0.228078 -0.234548 -0.505396 -0.159949 -0.594079 -0.233971 -0.069671 -0.099118 -0.207897 -0.083591 0.059659 -0.052692 0.608844 -0.277854 -0.482160 -0.302274 0.025419 0.150205 0.072337 0.550696 -0.184183 -0.243578 -0.150027 -0.596115 0.002719 0.500722 0.369201 -0.280683 -0.072917 -0.104112 0.030609 -0.299175 -0.061146 -0.188557 -0.419164 0.176554 0.011791 -0.223834 0.555943 0.018824 -0.189613 0.107519 0.682179 0.635717 0.115547 0.110196 0.142316 
今天 0.047473 0.374447 -0.228298 -0.356610 -0.121571 -0.262771 -0.043996 -0.116535 0.215731 0.550002 0.085455 0.205263 -0.093615 0.347921 0.356375 0.434825 0.322977 0.282152 -0.310038 -0.211994 0.085557 0.065020 -0.012643 -0.355171 -0.236295 0.063610 -0.433325 -0.330368 0.316661 -0.054836 -0.083436 0.056090 -0.215748 0.360596 -0.033142 0.284705 0.263975 -0.126493 0.423276 0.132108 -0.272660 -0.295529 -0.329172 0.250936 -0.292359 0.188047 0.230512 0.339624 0.092234 -0.264784 
生意 0.723073 -0.358167 -0.312650 0.318582 0.103712 -0.216776 0.413538 -0.519327 0.198128 0.262592 0.604791 -0.003619 0.091566 0.347794 0.108443 0.358868 -0.647725 -0.306593 0.481651 0.304253 -0.478968 0.908578 -0.129397 -0.335452 0.572479 -0.135728 0.383870 -0.271089 0.373159 0.199302 -0.540801 0.111244 -1.172169 -0.369798 0.646728 0.646477 0.465980 0.163304 0.771444 -0.320418 -0.475539 0.660971 -0.681904 0.406268 0.341278 -0.135595 -0.094436 0.164029 0.521659 -0.520952 
回来 0.195778 0.188192 -0.212183 -0.111464 0.105397 -0.271267 0.147942 -0.173158 -0.061638 -0.212993 0.205983 0.294582 -0.262889 0.106253 0.107153 0.029828 0.235532 -0.082561 0.135322 -0.223465 -0.214502 0.037201 0.423612 0.057910 -0.051584 0.209788 -0.349685 0.202392 0.212684 0.052452 -0.018869 -0.000388 -0.419540 -0.046772 -0.335828 0.059641 -0.029720 -0.259465 0.154754 -0.091874 -0.294930 -0.034680 -0.109866 0.048620 0.033318 0.074148 0.363169 -0.134917 0.067941 -0.252549 
礼物 0.150786 -0.328244 0.022006 -0.109500 -0.086500 0.293673 -0.077802 0.019453 0.348794 -0.164317 -0.320414 0.326167 -0.095228 0.349380 0.242319 -0.352160 0.062958 -0.365758 -0.113192 -0.116839 0.101190 0.140215 -0.227366 -0.019595 0.100754 -0.038855 -0.150316 -0.156564 0.307636 0.139986 0.118419 0.093500 -0.194209 -0.031175 0.301959 0.547955 -0.041240 -0.582940 0.073971 -0.219101 -0.237923 0.127633 -0.710130 0.432511 0.013169 0.181158 0.197888 -0.268411 0.482107 -0.670540 
些 -0.283050 0.193586 0.075312 0.114736 -0.380218 0.113058 0.137296 0.236903 -0.172527 -0.322327 0.158457 0.307256 -0.198206 -0.147632 0.327973 0.175492 -0.058699 -0.220832 -0.051070 0.270222 -0.023274 0.161859 0.216600 -0.158393 -0.080378 -0.036452 -0.293842 0.238798 0.047443 0.057528 0.325920 -0.076804 0.154137 -0.320849 0.270555 0.043056 -0.085481 0.223827 0.092813 0.031314 0.240190 0.021209 0.020517 -0.234555 -0.041790 0.303173 0.209277 0.281406 0.060979 -0.728397 
打底 -0.272698 0.231394 0.514343 0.232826 -0.475589 0.227146 0.034737 -0.180948 -0.212410 0.507456 0.478169 -0.080416 -0.472919 0.110532 -0.054665 -0.259162 0.184241 -0.283675 0.282849 -0.094421 0.229199 -0.105900 0.027233 0.088126 0.055279 0.375791 -0.132615 0.011010 0.014341 0.137945 0.224861 0.134504 0.361619 0.122904 -0.013548 0.170838 -0.017766 -0.031857 0.322174 0.032889 -0.085672 0.323449 -0.157165 0.247046 0.090406 -0.013337 0.034320 0.022914 0.246436 -0.527075 
扣子 -0.068934 -0.240070 0.499572 0.334909 -0.087529 0.376988 0.242920 -0.417164 -0.241258 0.090402 0.057844 0.001444 -0.173558 -0.163455 0.368240 0.404007 -0.135366 0.150110 0.248457 -0.130645 -0.182807 -0.178259 0.453564 -0.380509 -0.666327 -0.253711 -0.184561 0.458868 0.198876 -0.289776 -0.028170 -0.212492 0.112678 0.021149 -0.106644 -0.215491 -0.236076 -0.209990 0.432271 0.020410 -0.535222 -0.142575 -0.005269 0.303759 0.228939 -0.089386 0.288011 0.613663 -0.258741 -0.816092 
夏天 0.183688 -0.015501 0.088483 0.071828 -0.415438 0.129843 -0.128319 -0.034334 0.108033 0.100440 0.535087 -0.291911 0.131110 0.335369 -0.337227 0.466000 0.049596 -0.306575 0.142071 0.151341 0.432739 -0.017596 0.091089 0.202074 0.044211 0.507081 0.599635 0.427200 -0.049441 -0.282300 0.124134 0.353355 0.311054 -0.066818 -0.168738 0.379599 0.072188 -0.079158 0.359523 0.168404 -0.061522 0.195640 -0.041867 -0.299613 -0.161705 -0.031684 0.576878 0.229903 0.087700 -0.565978 
大爱 0.099895 0.223918 0.128691 -0.197676 0.151502 0.064260 0.156033 -0.343233 0.033092 0.065557 0.270380 0.291793 0.242742 -0.212136 0.119780 0.121088 0.180440 -0.033459 0.093407 0.165247 -0.184202 0.049415 -0.723613 -0.212774 0.124239 0.013558 -0.247490 0.132810 -0.080361 0.354679 -0.064860 0.308576 -0.089656 -0.001477 -0.063611 0.097763 0.031872 -0.250168 0.148571 0.214150 -0.209769 0.174557 -0.247591 0.147432 0.103063 -0.147854 0.496451 0.035871 0.158432 -0.259944 
凉快 0.010445 -0.178318 0.008567 -0.168241 -0.479818 0.342502 -0.125849 -0.006424 0.160481 -0.084714 0.293558 -0.042184 0.269222 0.109721 -0.217279 0.284417 0.423765 -0.604533 0.290069 -0.119023 0.421871 -0.092778 -0.016770 -0.016083 0.041324 0.315035 0.466568 0.238955 -0.100298 -0.374440 -0.018388 0.342563 0.248653 0.132090 -0.197058 0.194682 0.157813 -0.263061 0.269613 0.269646 -0.134690 -0.018934 -0.070665 -0.120521 -0.296970 -0.260188 0.534929 0.102070 0.230131 -0.509899 
长 -0.519525 0.080309 0.406117 -0.036648 -0.258846 0.130781 0.020327 -0.167349 -0.322706 -0.105933 0.021210 0.072948 0.213898 0.467130 0.080706 0.344865 0.121381 0.391369 -0.056669 -0.145744 0.029404 0.183547 0.153647 0.092662 -0.293223 -0.034579 -0.232039 0.235794 0.128437 0.089988 0.250489 -0.427514 -0.135275 -0.003253 0.607492 -0.018462 0.224289 -0.462334 0.404201 0.145016 -0.166442 0.457913 0.206999 -0.827685 0.419308 0.134517 0.481496 -0.096010 -0.010121 -0.370524 
力 -0.103182 0.225479 -0.481290 0.089582 0.155324 -0.182799 0.087471 -0.124142 0.316756 0.310855 -0.068454 0.203565 -0.068878 -0.131590 0.064571 0.313785 -0.008623 0.301182 0.284187 0.047672 -0.345667 -0.283183 -0.187348 -0.124374 -0.188883 -0.267029 -0.206167 -0.352829 -0.009279 0.103758 -0.128734 0.015163 0.325060 0.256087 -0.055330 0.669342 -0.150582 -0.334645 0.251940 0.112616 -0.231703 0.084173 -0.324378 0.075685 -0.092565 -0.270650 -0.063399 0.079634 0.320263 -0.320185 
钱 0.209195 0.339813 -0.226364 -0.336092 -0.343565 -0.897476 0.110269 -0.476594 -0.118420 -0.227829 0.617116 0.436871 -0.073507 0.315714 -0.118632 0.338708 -0.543462 -0.012873 0.287470 0.207200 -0.108297 -0.143656 -0.024022 0.257737 -0.994347 0.476950 -0.065267 0.661928 -0.246748 0.237279 -0.029865 -0.400139 -0.327819 0.196007 -0.225841 0.113948 0.084564 -0.693328 0.245962 -0.391452 0.240472 0.170873 -0.105945 0.264035 0.188582 0.328389 0.359110 0.041873 0.616445 0.319005 
价位 -0.007871 0.266214 0.333853 -0.332507 0.046439 0.016391 0.060570 -0.120014 -0.336528 -0.110624 0.367769 0.295251 0.042499 -0.068710 0.178890 0.044630 -0.120924 0.023955 -0.213555 0.074835 -0.270543 -0.071616 0.247017 0.405760 -0.127872 0.038710 -0.024608 -0.008681 0.271869 -0.183296 -0.217894 -0.036861 -0.059068 -0.140423 0.173255 0.146775 0.047189 -0.190760 -0.041624 0.217729 0.274070 0.347059 0.040801 0.306692 0.071038 0.245302 -0.072326 -0.028945 0.211126 -0.794389 
祝 0.629163 -0.277156 -0.184497 0.356201 0.429793 -0.281717 0.382502 -0.430921 0.285013 0.091612 0.612967 -0.055824 0.027544 0.385457 0.045528 0.436815 -0.440208 -0.305831 0.487275 0.301043 -0.492923 0.743682 -0.064034 -0.344888 0.464836 -0.279113 0.289368 -0.491591 0.470881 0.277552 -0.453604 0.271855 -0.986486 -0.342828 0.636352 0.550354 0.426945 0.148184 0.848613 -0.339963 -0.468335 0.474584 -0.726547 0.383296 0.166560 0.107245 -0.016527 0.070982 0.570272 -0.428098 
显瘦 -0.128337 0.096014 -0.205353 -0.260536 -0.086670 0.308817 -0.275793 0.083757 0.256212 -0.064071 0.460419 0.254464 -0.141008 -0.027047 0.360197 0.317818 0.020836 -0.230276 0.452154 -0.228755 -0.109944 0.443667 -0.078198 -0.373996 -0.133466 0.026320 0.126142 0.169279 -0.106103 0.542648 -0.217559 0.115846 0.249562 0.395047 -0.187243 0.250755 0.030051 -0.063423 0.102539 0.211380 0.016286 0.014070 0.026568 0.167745 -0.060303 -0.203083 0.006582 -0.387370 -0.162028 -0.293461 
惊喜 0.006460 0.288649 0.142385 -0.141771 0.087875 0.185698 -0.113916 -0.000864 0.089329 0.138437 0.409154 0.263426 -0.427259 0.034200 0.404622 0.112699 -0.292834 -0.426851 -0.013911 0.058321 -0.079747 -0.051076 -0.144815 -0.134497 -0.191241 0.212462 -0.071276 0.043953 -0.060433 -0.062240 -0.086108 -0.426353 -0.356865 -0.097867 -0.123284 0.070272 -0.172858 -0.183795 -0.255515 0.078342 -0.391926 -0.023648 -0.169658 0.165817 0.140890 0.036550 0.125794 -0.658999 0.347773 -0.580189 
划算 0.373070 0.141533 -0.015615 0.164316 0.137474 0.060250 -0.116323 -0.458978 -0.423696 0.019958 -0.153267 0.293407 -0.024863 0.109021 -0.289782 0.645678 -0.160945 0.079427 0.334072 0.086126 -0.238471 -0.227719 -0.684036 -0.055377 -0.160478 0.287625 -0.460784 0.343358 -0.066330 -0.222458 0.014863 0.000299 -0.033427 0.379766 0.067161 -0.085189 -0.111539 -0.223621 -0.221786 -0.138951 0.122180 0.461352 0.231700 0.245642 -0.608302 -0.002303 0.198046 -0.380910 0.214592 -0.534765 
体重 -0.782678 -0.198855 0.051021 0.132844 -0.565213 0.413327 1.031529 -0.735748 -0.169846 -0.372495 0.043489 0.138949 -0.160169 -0.077375 0.094836 -0.013070 -0.318232 0.062309 0.101649 -0.105196 -0.636035 0.805759 0.006538 0.041253 0.051388 0.013853 -0.371071 -0.343649 -0.199459 -0.373984 -0.094566 -0.147966 0.129446 0.576092 -0.012399 0.429530 -0.289842 -0.228342 0.255183 -0.024516 0.371667 0.060911 -0.467120 -0.007770 -0.234180 0.283884 0.539159 -0.187550 -0.079081 -0.215406 
入手 -0.155430 0.135136 0.149831 -0.091131 0.446440 -0.057918 0.057617 -0.191131 -0.013826 0.338296 0.378990 -0.195409 -0.121727 0.135581 -0.380560 0.214104 0.100416 0.367146 0.067737 0.133934 -0.243522 0.252699 -0.114823 -0.125254 0.131641 0.070644 -0.297706 0.335373 -0.198879 0.270800 -0.105261 0.531338 0.289111 0.080356 -0.125700 0.194459 -0.123343 -0.182477 0.163517 0.420075 0.001304 0.080314 0.131414 0.367234 -0.097614 0.198309 0.291884 -0.112826 -0.010988 -0.574594 
超所值 -0.208873 0.116355 0.795835 -0.398133 0.105479 -0.167398 0.034326 0.446592 0.250156 0.469688 -0.045058 0.475318 -0.642258 -0.444319 0.544895 0.121021 -0.218708 0.197879 -0.531705 0.275322 -0.409991 0.291373 -0.459677 0.556379 -0.233873 -0.163976 0.013734 -0.183613 -0.022538 -0.393581 -0.036148 0.452666 0.017780 0.265688 0.077080 0.107425 -0.254361 -0.564638 0.008392 0.310958 -0.401811 0.495381 0.055545 -0.092082 0.350987 -0.084955 -0.016777 -0.598450 0.562006 -0.215197 
块 0.279660 0.195821 -0.193842 -0.223448 -0.474369 -0.729748 0.247931 -0.298193 0.021804 -0.158479 0.530401 0.342689 -0.159648 0.359993 -0.057166 0.455001 -0.486425 0.179906 0.175019 0.103600 -0.122596 -0.111160 0.021445 0.129152 -0.924013 0.305165 -0.227320 0.727253 -0.172185 0.036976 -0.014393 -0.406351 -0.286347 0.310181 0.019763 -0.097384 0.165741 -0.804563 0.306907 -0.263208 0.133011 0.023608 0.088951 0.286200 0.130222 0.408151 0.400010 0.135395 0.585535 0.191348 
百 0.207758 -0.046922 0.472312 -0.060205 0.051045 -0.185287 -0.153113 -0.087440 -0.105140 0.230103 0.202945 0.037430 -0.076151 0.825021 0.041912 0.286883 -0.080969 -0.193178 0.323624 0.310277 0.249031 0.213645 -0.171374 -0.314516 -0.048734 0.096205 0.360427 0.620620 -0.170465 0.348137 0.541171 0.185347 -0.013248 0.452086 -0.341541 0.449292 -0.014354 0.075568 0.049325 0.563467 -0.234880 0.388024 -0.037226 -0.412836 -0.072724 0.197926 -0.382007 -0.031971 0.054285 -0.471942 
